digraph Tree {
node [shape=box, style="filled, rounded", color="black", fontname="helvetica"] ;
edge [fontname="helvetica"] ;
0 [label="av_lat <= 0.711\nsquared_error = 81587.979\nsamples = 3160\nvalue = 382.564", fillcolor="#f7d6bf"] ;
1 [label="NG <= 0.09\nsquared_error = 68639.737\nsamples = 2327\nvalue = 480.631", fillcolor="#f4cbae"] ;
0 -> 1 [labeldistance=2.5, labelangle=45, headlabel="True"] ;
2 [label="av_lat <= 0.514\nsquared_error = 133518.706\nsamples = 191\nvalue = 217.7", fillcolor="#fae8da"] ;
1 -> 2 ;
3 [label="av_lon <= 0.686\nsquared_error = 14228.404\nsamples = 159\nvalue = 64.062", fillcolor="#fef8f4"] ;
2 -> 3 ;
4 [label="log_NG_price <= 0.095\nsquared_error = 8556.472\nsamples = 37\nvalue = 252.244", fillcolor="#f9e4d4"] ;
3 -> 4 ;
5 [label="squared_error = 3121.046\nsamples = 4\nvalue = 163.22", fillcolor="#fbede3"] ;
4 -> 5 ;
6 [label="log_NG <= 0.015\nsquared_error = 7936.81\nsamples = 33\nvalue = 266.812", fillcolor="#f9e2d2"] ;
4 -> 6 ;
7 [label="avg_mw_per_cap <= 0.635\nsquared_error = 3937.036\nsamples = 26\nvalue = 251.266", fillcolor="#f9e4d5"] ;
6 -> 7 ;
8 [label="squared_error = 266.092\nsamples = 6\nvalue = 314.943", fillcolor="#f8ddca"] ;
7 -> 8 ;
9 [label="SUN <= 0.007\nsquared_error = 3197.533\nsamples = 20\nvalue = 226.92", fillcolor="#fae7d9"] ;
7 -> 9 ;
10 [label="squared_error = 3956.202\nsamples = 8\nvalue = 249.87", fillcolor="#f9e4d5"] ;
9 -> 10 ;
11 [label="log_avg_mw_per_cap <= 0.493\nsquared_error = 2339.706\nsamples = 12\nvalue = 214.401", fillcolor="#fae8db"] ;
9 -> 11 ;
12 [label="squared_error = 0.0\nsamples = 1\nvalue = 83.864", fillcolor="#fdf6f1"] ;
11 -> 12 ;
13 [label="log_avg_mw_per_cap <= 0.602\nsquared_error = 1601.048\nsamples = 11\nvalue = 220.617", fillcolor="#fae7da"] ;
11 -> 13 ;
14 [label="squared_error = 360.298\nsamples = 6\nvalue = 258.577", fillcolor="#f9e3d3"] ;
13 -> 14 ;
15 [label="squared_error = 228.154\nsamples = 5\nvalue = 186.108", fillcolor="#fbebe0"] ;
13 -> 15 ;
16 [label="squared_error = 21674.726\nsamples = 7\nvalue = 358.141", fillcolor="#f7d9c3"] ;
6 -> 16 ;
17 [label="squared_error = -0.0\nsamples = 122\nvalue = 0.0", fillcolor="#ffffff"] ;
3 -> 17 ;
18 [label="cos_year <= 0.237\nsquared_error = 1293.511\nsamples = 32\nvalue = 1007.841", fillcolor="#e99355"] ;
2 -> 18 ;
19 [label="sin_6mo <= -0.51\nsquared_error = 1078.385\nsamples = 17\nvalue = 1017.67", fillcolor="#e89254"] ;
18 -> 19 ;
20 [label="squared_error = 1016.426\nsamples = 6\nvalue = 990.085", fillcolor="#e99558"] ;
19 -> 20 ;
21 [label="log_NG_price <= 0.107\nsquared_error = 691.469\nsamples = 11\nvalue = 1028.398", fillcolor="#e89152"] ;
19 -> 21 ;
22 [label="squared_error = 97.747\nsamples = 2\nvalue = 1066.78", fillcolor="#e78d4b"] ;
21 -> 22 ;
23 [label="avg_mw_per_cap <= 0.967\nsquared_error = 558.516\nsamples = 9\nvalue = 1023.6", fillcolor="#e89153"] ;
21 -> 23 ;
24 [label="squared_error = 349.899\nsamples = 8\nvalue = 1027.52", fillcolor="#e89152"] ;
23 -> 24 ;
25 [label="squared_error = -0.0\nsamples = 1\nvalue = 964.802", fillcolor="#ea985c"] ;
23 -> 25 ;
26 [label="NG_price <= 0.186\nsquared_error = 1312.128\nsamples = 15\nvalue = 997.602", fillcolor="#e99457"] ;
18 -> 26 ;
27 [label="squared_error = 617.206\nsamples = 6\nvalue = 1043.315", fillcolor="#e88f4f"] ;
26 -> 27 ;
28 [label="log_avg_mw_per_cap <= 0.629\nsquared_error = 383.505\nsamples = 9\nvalue = 978.779", fillcolor="#e9965a"] ;
26 -> 28 ;
29 [label="squared_error = 330.338\nsamples = 5\nvalue = 967.727", fillcolor="#ea975c"] ;
28 -> 29 ;
30 [label="squared_error = 151.281\nsamples = 4\nvalue = 991.213", fillcolor="#e99558"] ;
28 -> 30 ;
31 [label="log_NUC <= 0.011\nsquared_error = 56020.918\nsamples = 2136\nvalue = 504.291", fillcolor="#f4c9aa"] ;
1 -> 31 ;
32 [label="WAT <= 0.043\nsquared_error = 51397.657\nsamples = 1486\nvalue = 579.702", fillcolor="#f2c19d"] ;
31 -> 32 ;
33 [label="av_lon <= 0.198\nsquared_error = 37874.516\nsamples = 1218\nvalue = 628.869", fillcolor="#f1bc95"] ;
32 -> 33 ;
34 [label="log_BIT <= 0.078\nsquared_error = 1923.552\nsamples = 183\nvalue = 411.383", fillcolor="#f6d3ba"] ;
33 -> 34 ;
35 [label="avg_mw_per_cap <= 0.008\nsquared_error = 1154.364\nsamples = 166\nvalue = 401.81", fillcolor="#f6d4bb"] ;
34 -> 35 ;
36 [label="sin_6mo <= 1.0\nsquared_error = 2569.883\nsamples = 13\nvalue = 469.734", fillcolor="#f5cdb0"] ;
35 -> 36 ;
37 [label="log_NG_price <= 0.049\nsquared_error = 1229.269\nsamples = 10\nvalue = 443.296", fillcolor="#f5cfb4"] ;
36 -> 37 ;
38 [label="squared_error = 0.0\nsamples = 1\nvalue = 380.607", fillcolor="#f7d6bf"] ;
37 -> 38 ;
39 [label="NG_price <= 0.277\nsquared_error = 1016.321\nsamples = 9\nvalue = 447.773", fillcolor="#f5cfb4"] ;
37 -> 39 ;
40 [label="squared_error = 871.788\nsamples = 3\nvalue = 480.096", fillcolor="#f4ccae"] ;
39 -> 40 ;
41 [label="squared_error = 693.104\nsamples = 6\nvalue = 438.958", fillcolor="#f5d0b5"] ;
39 -> 41 ;
42 [label="squared_error = 735.234\nsamples = 3\nvalue = 526.387", fillcolor="#f3c7a6"] ;
36 -> 42 ;
43 [label="log_OTH <= 0.001\nsquared_error = 523.741\nsamples = 153\nvalue = 395.198", fillcolor="#f6d5bc"] ;
35 -> 43 ;
44 [label="log_WAT <= 0.001\nsquared_error = 357.509\nsamples = 113\nvalue = 399.23", fillcolor="#f6d4bc"] ;
43 -> 44 ;
45 [label="log_avg_mw_per_cap <= 0.078\nsquared_error = 331.286\nsamples = 109\nvalue = 398.234", fillcolor="#f6d4bc"] ;
44 -> 45 ;
46 [label="NG_price <= 0.406\nsquared_error = 454.961\nsamples = 16\nvalue = 418.689", fillcolor="#f6d2b8"] ;
45 -> 46 ;
47 [label="log_NG_price <= 0.261\nsquared_error = 209.122\nsamples = 9\nvalue = 410.29", fillcolor="#f6d3ba"] ;
46 -> 47 ;
48 [label="squared_error = 222.789\nsamples = 5\nvalue = 417.825", fillcolor="#f6d2b9"] ;
47 -> 48 ;
49 [label="squared_error = 54.484\nsamples = 4\nvalue = 401.679", fillcolor="#f6d4bb"] ;
47 -> 49 ;
50 [label="squared_error = 559.177\nsamples = 7\nvalue = 431.288", fillcolor="#f5d1b6"] ;
46 -> 50 ;
51 [label="av_lon <= 0.194\nsquared_error = 225.386\nsamples = 93\nvalue = 394.708", fillcolor="#f6d5bc"] ;
45 -> 51 ;
52 [label="sin_6mo <= 0.471\nsquared_error = 79.036\nsamples = 62\nvalue = 389.916", fillcolor="#f6d5bd"] ;
51 -> 52 ;
53 [label="sin_year <= 0.962\nsquared_error = 72.374\nsamples = 45\nvalue = 391.806", fillcolor="#f6d5bd"] ;
52 -> 53 ;
54 [label="av_lat <= 0.34\nsquared_error = 71.205\nsamples = 34\nvalue = 390.656", fillcolor="#f6d5bd"] ;
53 -> 54 ;
55 [label="cos_6mo <= 0.902\nsquared_error = 38.666\nsamples = 17\nvalue = 393.634", fillcolor="#f6d5bd"] ;
54 -> 55 ;
56 [label="log_avg_mw_per_cap <= 0.688\nsquared_error = 35.937\nsamples = 16\nvalue = 393.979", fillcolor="#f6d5bd"] ;
55 -> 56 ;
57 [label="avg_mw_per_cap <= 0.365\nsquared_error = 21.235\nsamples = 15\nvalue = 395.293", fillcolor="#f6d5bc"] ;
56 -> 57 ;
58 [label="squared_error = 35.295\nsamples = 4\nvalue = 400.749", fillcolor="#f6d4bb"] ;
57 -> 58 ;
59 [label="log_NG_price <= 0.548\nsquared_error = 7.778\nsamples = 11\nvalue = 393.87", fillcolor="#f6d5bd"] ;
57 -> 59 ;
60 [label="sin_6mo <= -0.514\nsquared_error = 4.54\nsamples = 10\nvalue = 394.265", fillcolor="#f6d5bd"] ;
59 -> 60 ;
61 [label="squared_error = 2.967\nsamples = 5\nvalue = 393.162", fillcolor="#f6d5bd"] ;
60 -> 61 ;
62 [label="squared_error = 3.675\nsamples = 5\nvalue = 395.369", fillcolor="#f6d5bc"] ;
60 -> 62 ;
63 [label="squared_error = 0.0\nsamples = 1\nvalue = 385.176", fillcolor="#f6d6be"] ;
59 -> 63 ;
64 [label="squared_error = 0.0\nsamples = 1\nvalue = 381.276", fillcolor="#f7d6bf"] ;
56 -> 64 ;
65 [label="squared_error = 0.0\nsamples = 1\nvalue = 382.58", fillcolor="#f7d6bf"] ;
55 -> 65 ;
66 [label="av_lat <= 0.377\nsquared_error = 86.51\nsamples = 17\nvalue = 385.977", fillcolor="#f6d6be"] ;
54 -> 66 ;
67 [label="squared_error = 32.504\nsamples = 7\nvalue = 376.34", fillcolor="#f7d7c0"] ;
66 -> 67 ;
68 [label="log_avg_mw_per_cap <= 0.433\nsquared_error = 27.431\nsamples = 10\nvalue = 391.907", fillcolor="#f6d5bd"] ;
66 -> 68 ;
69 [label="squared_error = 0.181\nsamples = 2\nvalue = 385.242", fillcolor="#f6d6be"] ;
68 -> 69 ;
70 [label="squared_error = 18.284\nsamples = 8\nvalue = 393.906", fillcolor="#f6d5bd"] ;
68 -> 70 ;
71 [label="avg_mw_per_cap <= 0.162\nsquared_error = 48.906\nsamples = 11\nvalue = 396.584", fillcolor="#f6d4bc"] ;
53 -> 71 ;
72 [label="squared_error = 0.0\nsamples = 1\nvalue = 408.212", fillcolor="#f6d3ba"] ;
71 -> 72 ;
73 [label="sin_year <= 0.964\nsquared_error = 40.775\nsamples = 10\nvalue = 395.615", fillcolor="#f6d5bc"] ;
71 -> 73 ;
74 [label="squared_error = 32.1\nsamples = 5\nvalue = 399.376", fillcolor="#f6d4bc"] ;
73 -> 74 ;
75 [label="squared_error = 29.651\nsamples = 5\nvalue = 392.929", fillcolor="#f6d5bd"] ;
73 -> 75 ;
76 [label="av_lat <= 0.34\nsquared_error = 63.256\nsamples = 17\nvalue = 385.044", fillcolor="#f6d6be"] ;
52 -> 76 ;
77 [label="NG_price <= 0.238\nsquared_error = 19.207\nsamples = 10\nvalue = 389.099", fillcolor="#f6d5bd"] ;
76 -> 77 ;
78 [label="squared_error = 1.363\nsamples = 4\nvalue = 387.103", fillcolor="#f6d5be"] ;
77 -> 78 ;
79 [label="squared_error = 29.079\nsamples = 6\nvalue = 391.096", fillcolor="#f6d5bd"] ;
77 -> 79 ;
80 [label="squared_error = 65.314\nsamples = 7\nvalue = 378.555", fillcolor="#f7d6bf"] ;
76 -> 80 ;
81 [label="cos_6mo <= 0.896\nsquared_error = 372.611\nsamples = 31\nvalue = 403.278", fillcolor="#f6d4bb"] ;
51 -> 81 ;
82 [label="sin_6mo <= -0.001\nsquared_error = 128.964\nsamples = 27\nvalue = 400.739", fillcolor="#f6d4bb"] ;
81 -> 82 ;
83 [label="sin_year <= -0.457\nsquared_error = 13.604\nsamples = 12\nvalue = 394.545", fillcolor="#f6d5bd"] ;
82 -> 83 ;
84 [label="squared_error = 15.561\nsamples = 5\nvalue = 397.028", fillcolor="#f6d4bc"] ;
83 -> 84 ;
85 [label="squared_error = 4.437\nsamples = 7\nvalue = 392.739", fillcolor="#f6d5bd"] ;
83 -> 85 ;
86 [label="sin_year <= 0.305\nsquared_error = 162.941\nsamples = 15\nvalue = 404.797", fillcolor="#f6d4bb"] ;
82 -> 86 ;
87 [label="squared_error = 49.819\nsamples = 7\nvalue = 399.19", fillcolor="#f6d4bc"] ;
86 -> 87 ;
88 [label="squared_error = 208.562\nsamples = 8\nvalue = 409.352", fillcolor="#f6d3ba"] ;
86 -> 88 ;
89 [label="squared_error = 2290.739\nsamples = 4\nvalue = 433.746", fillcolor="#f5d0b6"] ;
81 -> 89 ;
90 [label="squared_error = 277.124\nsamples = 4\nvalue = 427.431", fillcolor="#f6d1b7"] ;
44 -> 90 ;
91 [label="log_OTH <= 0.002\nsquared_error = 850.312\nsamples = 40\nvalue = 381.008", fillcolor="#f7d6bf"] ;
43 -> 91 ;
92 [label="log_SUN <= 0.122\nsquared_error = 557.007\nsamples = 17\nvalue = 369.556", fillcolor="#f7d7c1"] ;
91 -> 92 ;
93 [label="OTH <= 0.002\nsquared_error = 519.742\nsamples = 9\nvalue = 378.627", fillcolor="#f7d6bf"] ;
92 -> 93 ;
94 [label="squared_error = 132.138\nsamples = 5\nvalue = 399.482", fillcolor="#f6d4bc"] ;
93 -> 94 ;
95 [label="squared_error = 37.526\nsamples = 4\nvalue = 357.773", fillcolor="#f7d9c3"] ;
93 -> 95 ;
96 [label="squared_error = 304.302\nsamples = 8\nvalue = 355.948", fillcolor="#f7d9c3"] ;
92 -> 96 ;
97 [label="SUN <= 0.104\nsquared_error = 900.114\nsamples = 23\nvalue = 388.643", fillcolor="#f6d5be"] ;
91 -> 97 ;
98 [label="OTH <= 0.004\nsquared_error = 952.484\nsamples = 10\nvalue = 375.82", fillcolor="#f7d7c0"] ;
97 -> 98 ;
99 [label="cos_year <= -0.473\nsquared_error = 537.086\nsamples = 9\nvalue = 385.869", fillcolor="#f6d6be"] ;
98 -> 99 ;
100 [label="squared_error = 142.227\nsamples = 4\nvalue = 410.11", fillcolor="#f6d3ba"] ;
99 -> 100 ;
101 [label="squared_error = 147.368\nsamples = 5\nvalue = 369.707", fillcolor="#f7d7c1"] ;
99 -> 101 ;
102 [label="squared_error = 0.0\nsamples = 1\nvalue = 325.575", fillcolor="#f8dcc8"] ;
98 -> 102 ;
103 [label="log_WAT <= 0.001\nsquared_error = 682.485\nsamples = 13\nvalue = 397.192", fillcolor="#f6d4bc"] ;
97 -> 103 ;
104 [label="squared_error = 360.804\nsamples = 8\nvalue = 385.545", fillcolor="#f6d6be"] ;
103 -> 104 ;
105 [label="squared_error = 511.855\nsamples = 5\nvalue = 420.487", fillcolor="#f6d2b8"] ;
103 -> 105 ;
106 [label="cos_6mo <= -0.04\nsquared_error = 1016.178\nsamples = 17\nvalue = 493.246", fillcolor="#f4caac"] ;
34 -> 106 ;
107 [label="squared_error = 285.099\nsamples = 8\nvalue = 472.065", fillcolor="#f5ccaf"] ;
106 -> 107 ;
108 [label="log_avg_mw_per_cap <= 0.439\nsquared_error = 949.466\nsamples = 9\nvalue = 510.456", fillcolor="#f4c8a9"] ;
106 -> 108 ;
109 [label="squared_error = 360.779\nsamples = 2\nvalue = 559.546", fillcolor="#f3c3a1"] ;
108 -> 109 ;
110 [label="squared_error = 400.887\nsamples = 7\nvalue = 499.128", fillcolor="#f4c9ab"] ;
108 -> 110 ;
111 [label="NG <= 0.455\nsquared_error = 34682.674\nsamples = 1035\nvalue = 665.007", fillcolor="#f0b88f"] ;
33 -> 111 ;
112 [label="log_SUN <= 0.0\nsquared_error = 16351.545\nsamples = 410\nvalue = 818.161", fillcolor="#eda775"] ;
111 -> 112 ;
113 [label="log_BIT <= 0.238\nsquared_error = 20986.116\nsamples = 98\nvalue = 910.603", fillcolor="#eb9d66"] ;
112 -> 113 ;
114 [label="cos_6mo <= -0.886\nsquared_error = 3667.529\nsamples = 44\nvalue = 1033.382", fillcolor="#e89051"] ;
113 -> 114 ;
115 [label="squared_error = 693.436\nsamples = 5\nvalue = 969.442", fillcolor="#ea975c"] ;
114 -> 115 ;
116 [label="SUB <= 0.392\nsquared_error = 3477.776\nsamples = 39\nvalue = 1040.968", fillcolor="#e88f50"] ;
114 -> 116 ;
117 [label="log_NG_price <= 0.392\nsquared_error = 3559.131\nsamples = 33\nvalue = 1031.352", fillcolor="#e89051"] ;
116 -> 117 ;
118 [label="cos_6mo <= -0.879\nsquared_error = 1588.643\nsamples = 31\nvalue = 1018.578", fillcolor="#e89253"] ;
117 -> 118 ;
119 [label="squared_error = 381.032\nsamples = 3\nvalue = 1063.78", fillcolor="#e78d4c"] ;
118 -> 119 ;
120 [label="sin_year <= -0.222\nsquared_error = 1487.673\nsamples = 28\nvalue = 1014.168", fillcolor="#e99254"] ;
118 -> 120 ;
121 [label="sin_6mo <= -0.565\nsquared_error = 1552.093\nsamples = 14\nvalue = 1027.46", fillcolor="#e89152"] ;
120 -> 121 ;
122 [label="squared_error = 1446.729\nsamples = 4\nvalue = 989.578", fillcolor="#e99558"] ;
121 -> 122 ;
123 [label="cos_year <= -0.82\nsquared_error = 718.63\nsamples = 10\nvalue = 1043.696", fillcolor="#e88f4f"] ;
121 -> 123 ;
124 [label="squared_error = 1070.141\nsamples = 5\nvalue = 1031.795", fillcolor="#e89051"] ;
123 -> 124 ;
125 [label="squared_error = 269.128\nsamples = 5\nvalue = 1052.621", fillcolor="#e88e4e"] ;
123 -> 125 ;
126 [label="sin_year <= 0.245\nsquared_error = 1097.811\nsamples = 14\nvalue = 1001.509", fillcolor="#e99456"] ;
120 -> 126 ;
127 [label="squared_error = 1086.054\nsamples = 2\nvalue = 967.17", fillcolor="#ea975c"] ;
126 -> 127 ;
128 [label="sin_6mo <= -0.505\nsquared_error = 961.853\nsamples = 12\nvalue = 1005.124", fillcolor="#e99356"] ;
126 -> 128 ;
129 [label="squared_error = 206.442\nsamples = 5\nvalue = 989.24", fillcolor="#e99558"] ;
128 -> 129 ;
130 [label="squared_error = 1169.483\nsamples = 7\nvalue = 1014.39", fillcolor="#e99254"] ;
128 -> 130 ;
131 [label="squared_error = 3239.586\nsamples = 2\nvalue = 1175.06", fillcolor="#e58139"] ;
117 -> 131 ;
132 [label="squared_error = 405.972\nsamples = 6\nvalue = 1088.086", fillcolor="#e78a48"] ;
116 -> 132 ;
133 [label="log_DFO <= 0.001\nsquared_error = 14012.954\nsamples = 54\nvalue = 817.461", fillcolor="#eda775"] ;
113 -> 133 ;
134 [label="log_NG <= 0.318\nsquared_error = 5581.164\nsamples = 27\nvalue = 737.228", fillcolor="#efb083"] ;
133 -> 134 ;
135 [label="squared_error = 1546.798\nsamples = 8\nvalue = 671.091", fillcolor="#f0b78e"] ;
134 -> 135 ;
136 [label="NG_price <= 0.363\nsquared_error = 4460.813\nsamples = 19\nvalue = 768.229", fillcolor="#eead7e"] ;
134 -> 136 ;
137 [label="cos_year <= -0.235\nsquared_error = 3663.187\nsamples = 13\nvalue = 747.673", fillcolor="#eeaf81"] ;
136 -> 137 ;
138 [label="squared_error = 0.0\nsamples = 1\nvalue = 894.859", fillcolor="#eb9f68"] ;
137 -> 138 ;
139 [label="log_BIT <= 0.483\nsquared_error = 2839.601\nsamples = 12\nvalue = 741.273", fillcolor="#efb082"] ;
137 -> 139 ;
140 [label="squared_error = 2899.427\nsamples = 5\nvalue = 704.404", fillcolor="#efb388"] ;
139 -> 140 ;
141 [label="squared_error = 1696.071\nsamples = 7\nvalue = 760.937", fillcolor="#eead7f"] ;
139 -> 141 ;
142 [label="squared_error = 1782.779\nsamples = 6\nvalue = 829.899", fillcolor="#eda673"] ;
136 -> 142 ;
143 [label="OTH <= 0.016\nsquared_error = 7468.759\nsamples = 27\nvalue = 911.735", fillcolor="#eb9d65"] ;
133 -> 143 ;
144 [label="log_NG <= 0.292\nsquared_error = 2260.66\nsamples = 20\nvalue = 946.103", fillcolor="#ea9a60"] ;
143 -> 144 ;
145 [label="cos_year <= 0.952\nsquared_error = 301.168\nsamples = 15\nvalue = 973.457", fillcolor="#e9975b"] ;
144 -> 145 ;
146 [label="NG <= 0.305\nsquared_error = 200.681\nsamples = 12\nvalue = 978.612", fillcolor="#e9965a"] ;
145 -> 146 ;
147 [label="NG_price <= 0.332\nsquared_error = 120.195\nsamples = 10\nvalue = 983.001", fillcolor="#e99659"] ;
146 -> 147 ;
148 [label="squared_error = 0.0\nsamples = 1\nvalue = 951.299", fillcolor="#ea995f"] ;
147 -> 148 ;
149 [label="NG <= 0.301\nsquared_error = 51.866\nsamples = 9\nvalue = 985.265", fillcolor="#e99559"] ;
147 -> 149 ;
150 [label="squared_error = 188.18\nsamples = 2\nvalue = 976.088", fillcolor="#e9965b"] ;
149 -> 150 ;
151 [label="squared_error = 12.771\nsamples = 7\nvalue = 986.795", fillcolor="#e99559"] ;
149 -> 151 ;
152 [label="squared_error = 25.294\nsamples = 2\nvalue = 956.669", fillcolor="#ea985e"] ;
146 -> 152 ;
153 [label="squared_error = 283.702\nsamples = 3\nvalue = 957.991", fillcolor="#ea985e"] ;
145 -> 153 ;
154 [label="squared_error = 169.749\nsamples = 5\nvalue = 873.158", fillcolor="#eca16c"] ;
144 -> 154 ;
155 [label="squared_error = 203.081\nsamples = 7\nvalue = 749.717", fillcolor="#eeaf81"] ;
143 -> 155 ;
156 [label="WAT <= 0.015\nsquared_error = 11367.263\nsamples = 312\nvalue = 789.118", fillcolor="#eeaa7a"] ;
112 -> 156 ;
157 [label="NG <= 0.339\nsquared_error = 12678.701\nsamples = 228\nvalue = 813.743", fillcolor="#eda876"] ;
156 -> 157 ;
158 [label="log_RC <= 0.077\nsquared_error = 7798.12\nsamples = 46\nvalue = 904.029", fillcolor="#eb9e67"] ;
157 -> 158 ;
159 [label="NG_price <= 0.386\nsquared_error = 2644.23\nsamples = 45\nvalue = 916.431", fillcolor="#eb9d65"] ;
158 -> 159 ;
160 [label="SUN <= 0.072\nsquared_error = 1935.728\nsamples = 33\nvalue = 892.882", fillcolor="#eb9f69"] ;
159 -> 160 ;
161 [label="squared_error = 755.98\nsamples = 7\nvalue = 945.646", fillcolor="#ea9a60"] ;
160 -> 161 ;
162 [label="NG <= 0.324\nsquared_error = 1185.577\nsamples = 26\nvalue = 876.759", fillcolor="#eca16b"] ;
160 -> 162 ;
163 [label="log_OTH <= 0.006\nsquared_error = 1261.62\nsamples = 17\nvalue = 865.898", fillcolor="#eca26d"] ;
162 -> 163 ;
164 [label="squared_error = 255.256\nsamples = 5\nvalue = 847.829", fillcolor="#eca470"] ;
163 -> 164 ;
165 [label="cos_year <= 0.475\nsquared_error = 1563.769\nsamples = 12\nvalue = 877.513", fillcolor="#eca16b"] ;
163 -> 165 ;
166 [label="squared_error = 838.558\nsamples = 8\nvalue = 855.126", fillcolor="#eca36f"] ;
165 -> 166 ;
167 [label="squared_error = 343.068\nsamples = 4\nvalue = 917.811", fillcolor="#eb9d64"] ;
165 -> 167 ;
168 [label="avg_mw_per_cap <= 0.552\nsquared_error = 473.04\nsamples = 9\nvalue = 895.976", fillcolor="#eb9f68"] ;
162 -> 168 ;
169 [label="squared_error = 31.889\nsamples = 2\nvalue = 861.368", fillcolor="#eca36e"] ;
168 -> 169 ;
170 [label="squared_error = 138.267\nsamples = 7\nvalue = 906.359", fillcolor="#eb9e66"] ;
168 -> 170 ;
171 [label="log_SUN <= 0.067\nsquared_error = 210.818\nsamples = 12\nvalue = 969.137", fillcolor="#ea975c"] ;
159 -> 171 ;
172 [label="NG_price <= 0.511\nsquared_error = 63.299\nsamples = 9\nvalue = 974.227", fillcolor="#e9975b"] ;
171 -> 172 ;
173 [label="squared_error = 19.54\nsamples = 5\nvalue = 978.721", fillcolor="#e9965a"] ;
172 -> 173 ;
174 [label="squared_error = 50.459\nsamples = 4\nvalue = 967.165", fillcolor="#ea975c"] ;
172 -> 174 ;
175 [label="squared_error = 7.808\nsamples = 3\nvalue = 938.597", fillcolor="#ea9a61"] ;
171 -> 175 ;
176 [label="squared_error = 0.0\nsamples = 1\nvalue = 482.365", fillcolor="#f4cbae"] ;
158 -> 176 ;
177 [label="DFO <= 0.007\nsquared_error = 11364.476\nsamples = 182\nvalue = 791.332", fillcolor="#edaa7a"] ;
157 -> 177 ;
178 [label="NG_price <= 0.529\nsquared_error = 1647.334\nsamples = 82\nvalue = 869.431", fillcolor="#eca26c"] ;
177 -> 178 ;
179 [label="avg_mw_per_cap <= 0.634\nsquared_error = 1648.396\nsamples = 68\nvalue = 876.809", fillcolor="#eca16b"] ;
178 -> 179 ;
180 [label="log_WND <= 0.037\nsquared_error = 1342.874\nsamples = 11\nvalue = 832.605", fillcolor="#eda673"] ;
179 -> 180 ;
181 [label="squared_error = 214.879\nsamples = 7\nvalue = 849.541", fillcolor="#eca470"] ;
180 -> 181 ;
182 [label="squared_error = 1284.614\nsamples = 4\nvalue = 781.794", fillcolor="#eeab7b"] ;
180 -> 182 ;
183 [label="log_RC <= 0.324\nsquared_error = 1288.882\nsamples = 57\nvalue = 884.756", fillcolor="#eba06a"] ;
179 -> 183 ;
184 [label="sin_6mo <= 0.463\nsquared_error = 1292.234\nsamples = 48\nvalue = 890.008", fillcolor="#eba069"] ;
183 -> 184 ;
185 [label="log_NG <= 0.319\nsquared_error = 866.582\nsamples = 28\nvalue = 903.148", fillcolor="#eb9e67"] ;
184 -> 185 ;
186 [label="squared_error = 610.035\nsamples = 7\nvalue = 927.666", fillcolor="#ea9c63"] ;
185 -> 186 ;
187 [label="NG <= 0.385\nsquared_error = 641.666\nsamples = 21\nvalue = 893.613", fillcolor="#eb9f68"] ;
185 -> 187 ;
188 [label="cos_6mo <= -0.856\nsquared_error = 433.621\nsamples = 13\nvalue = 880.838", fillcolor="#eca16b"] ;
187 -> 188 ;
189 [label="squared_error = 290.141\nsamples = 2\nvalue = 902.962", fillcolor="#eb9e67"] ;
188 -> 189 ;
190 [label="sin_year <= -0.957\nsquared_error = 316.536\nsamples = 11\nvalue = 875.307", fillcolor="#eca16c"] ;
188 -> 190 ;
191 [label="squared_error = 0.0\nsamples = 1\nvalue = 850.233", fillcolor="#eca470"] ;
190 -> 191 ;
192 [label="SUN <= 0.015\nsquared_error = 259.11\nsamples = 10\nvalue = 878.889", fillcolor="#eca16b"] ;
190 -> 192 ;
193 [label="squared_error = 105.051\nsamples = 6\nvalue = 882.608", fillcolor="#eba06a"] ;
192 -> 193 ;
194 [label="squared_error = 523.272\nsamples = 4\nvalue = 869.593", fillcolor="#eca26c"] ;
192 -> 194 ;
195 [label="squared_error = 442.713\nsamples = 8\nvalue = 909.582", fillcolor="#eb9d66"] ;
187 -> 195 ;
196 [label="log_OTH <= 0.0\nsquared_error = 1107.611\nsamples = 20\nvalue = 863.729", fillcolor="#eca26d"] ;
184 -> 196 ;
197 [label="sin_year <= 0.51\nsquared_error = 480.059\nsamples = 10\nvalue = 888.43", fillcolor="#eba069"] ;
196 -> 197 ;
198 [label="squared_error = 169.355\nsamples = 7\nvalue = 899.88", fillcolor="#eb9f67"] ;
197 -> 198 ;
199 [label="squared_error = 314.849\nsamples = 3\nvalue = 865.53", fillcolor="#eca26d"] ;
197 -> 199 ;
200 [label="log_WND <= 0.004\nsquared_error = 603.763\nsamples = 10\nvalue = 840.927", fillcolor="#eca571"] ;
196 -> 200 ;
201 [label="squared_error = 702.711\nsamples = 2\nvalue = 817.243", fillcolor="#eda775"] ;
200 -> 201 ;
202 [label="squared_error = 355.305\nsamples = 8\nvalue = 848.033", fillcolor="#eca470"] ;
200 -> 202 ;
203 [label="SUN <= 0.001\nsquared_error = 331.423\nsamples = 9\nvalue = 856.618", fillcolor="#eca36f"] ;
183 -> 203 ;
204 [label="squared_error = 329.932\nsamples = 6\nvalue = 851.122", fillcolor="#eca470"] ;
203 -> 204 ;
205 [label="squared_error = 70.859\nsamples = 3\nvalue = 870.358", fillcolor="#eca26c"] ;
203 -> 205 ;
206 [label="log_WND <= 0.084\nsquared_error = 454.181\nsamples = 14\nvalue = 838.446", fillcolor="#eca572"] ;
178 -> 206 ;
207 [label="squared_error = 495.557\nsamples = 5\nvalue = 860.154", fillcolor="#eca36e"] ;
206 -> 207 ;
208 [label="log_avg_mw_per_cap <= 0.672\nsquared_error = 108.592\nsamples = 9\nvalue = 828.23", fillcolor="#eda673"] ;
206 -> 208 ;
209 [label="squared_error = 95.403\nsamples = 8\nvalue = 827.146", fillcolor="#eda674"] ;
208 -> 209 ;
210 [label="squared_error = 0.0\nsamples = 1\nvalue = 845.574", fillcolor="#eca471"] ;
208 -> 210 ;
211 [label="GEO <= 0.003\nsquared_error = 9996.806\nsamples = 100\nvalue = 724.536", fillcolor="#efb185"] ;
177 -> 211 ;
212 [label="log_SUN <= 0.109\nsquared_error = 6558.796\nsamples = 80\nvalue = 754.458", fillcolor="#eeae80"] ;
211 -> 212 ;
213 [label="GEO <= 0.0\nsquared_error = 5695.721\nsamples = 54\nvalue = 788.915", fillcolor="#eeaa7a"] ;
212 -> 213 ;
214 [label="log_SUN <= 0.013\nsquared_error = 6040.999\nsamples = 45\nvalue = 779.919", fillcolor="#eeab7c"] ;
213 -> 214 ;
215 [label="log_NG <= 0.369\nsquared_error = 3633.251\nsamples = 28\nvalue = 739.044", fillcolor="#efb082"] ;
214 -> 215 ;
216 [label="cos_6mo <= -0.865\nsquared_error = 2853.467\nsamples = 21\nvalue = 749.139", fillcolor="#eeaf81"] ;
215 -> 216 ;
217 [label="squared_error = 1927.276\nsamples = 2\nvalue = 681.569", fillcolor="#f0b68c"] ;
216 -> 217 ;
218 [label="cos_year <= 0.007\nsquared_error = 2558.816\nsamples = 19\nvalue = 754.145", fillcolor="#eeae80"] ;
216 -> 218 ;
219 [label="cos_year <= -0.478\nsquared_error = 634.428\nsamples = 11\nvalue = 778.228", fillcolor="#eeac7c"] ;
218 -> 219 ;
220 [label="log_NG_price <= 0.289\nsquared_error = 270.605\nsamples = 10\nvalue = 770.691", fillcolor="#eeac7d"] ;
219 -> 220 ;
221 [label="squared_error = 139.327\nsamples = 3\nvalue = 758.538", fillcolor="#eeae7f"] ;
220 -> 221 ;
222 [label="squared_error = 175.195\nsamples = 7\nvalue = 779.807", fillcolor="#eeab7c"] ;
220 -> 222 ;
223 [label="squared_error = 0.0\nsamples = 1\nvalue = 830.988", fillcolor="#eda673"] ;
219 -> 223 ;
224 [label="squared_error = 3287.065\nsamples = 8\nvalue = 719.114", fillcolor="#efb286"] ;
218 -> 224 ;
225 [label="squared_error = 4759.284\nsamples = 7\nvalue = 706.514", fillcolor="#efb388"] ;
215 -> 225 ;
226 [label="BIT <= 0.286\nsquared_error = 3768.633\nsamples = 17\nvalue = 837.448", fillcolor="#eca572"] ;
214 -> 226 ;
227 [label="cos_year <= 0.269\nsquared_error = 1433.064\nsamples = 12\nvalue = 800.465", fillcolor="#eda978"] ;
226 -> 227 ;
228 [label="squared_error = 176.15\nsamples = 5\nvalue = 763.93", fillcolor="#eead7e"] ;
227 -> 228 ;
229 [label="squared_error = 724.496\nsamples = 7\nvalue = 826.039", fillcolor="#eda674"] ;
227 -> 229 ;
230 [label="squared_error = 1461.153\nsamples = 5\nvalue = 900.319", fillcolor="#eb9e67"] ;
226 -> 230 ;
231 [label="avg_mw_per_cap <= 0.795\nsquared_error = 1541.906\nsamples = 9\nvalue = 833.891", fillcolor="#eda672"] ;
213 -> 231 ;
232 [label="squared_error = 0.0\nsamples = 1\nvalue = 761.421", fillcolor="#eead7f"] ;
231 -> 232 ;
233 [label="squared_error = 693.759\nsamples = 8\nvalue = 847.067", fillcolor="#eca470"] ;
231 -> 233 ;
234 [label="avg_mw_per_cap <= 0.671\nsquared_error = 2429.656\nsamples = 26\nvalue = 694.732", fillcolor="#f0b58a"] ;
212 -> 234 ;
235 [label="log_NG <= 0.318\nsquared_error = 2207.07\nsamples = 16\nvalue = 677.737", fillcolor="#f0b68d"] ;
234 -> 235 ;
236 [label="squared_error = 269.627\nsamples = 3\nvalue = 635.04", fillcolor="#f1bb94"] ;
235 -> 236 ;
237 [label="cos_6mo <= 0.014\nsquared_error = 2023.797\nsamples = 13\nvalue = 692.681", fillcolor="#f0b58a"] ;
235 -> 237 ;
238 [label="sin_year <= 0.839\nsquared_error = 928.799\nsamples = 9\nvalue = 675.455", fillcolor="#f0b78d"] ;
237 -> 238 ;
239 [label="squared_error = 228.787\nsamples = 5\nvalue = 689.493", fillcolor="#f0b58b"] ;
238 -> 239 ;
240 [label="squared_error = 664.284\nsamples = 4\nvalue = 633.343", fillcolor="#f1bb94"] ;
238 -> 240 ;
241 [label="squared_error = 469.237\nsamples = 4\nvalue = 761.584", fillcolor="#eead7f"] ;
237 -> 241 ;
242 [label="log_NG_price <= 0.331\nsquared_error = 1680.481\nsamples = 10\nvalue = 720.224", fillcolor="#efb286"] ;
234 -> 242 ;
243 [label="squared_error = 785.141\nsamples = 8\nvalue = 707.792", fillcolor="#efb388"] ;
242 -> 243 ;
244 [label="squared_error = 1521.047\nsamples = 2\nvalue = 782.38", fillcolor="#eeab7b"] ;
242 -> 244 ;
245 [label="log_DFO <= 0.023\nsquared_error = 4675.853\nsamples = 20\nvalue = 597.628", fillcolor="#f2bf9a"] ;
211 -> 245 ;
246 [label="cos_year <= 0.234\nsquared_error = 3115.037\nsamples = 11\nvalue = 630.557", fillcolor="#f1bb95"] ;
245 -> 246 ;
247 [label="squared_error = 1648.668\nsamples = 6\nvalue = 658.713", fillcolor="#f0b890"] ;
246 -> 247 ;
248 [label="squared_error = 1685.261\nsamples = 5\nvalue = 578.936", fillcolor="#f2c19d"] ;
246 -> 248 ;
249 [label="NG <= 0.368\nsquared_error = 3174.848\nsamples = 9\nvalue = 550.98", fillcolor="#f3c4a2"] ;
245 -> 249 ;
250 [label="squared_error = 1209.973\nsamples = 5\nvalue = 568.95", fillcolor="#f2c29f"] ;
249 -> 250 ;
251 [label="squared_error = 4840.669\nsamples = 4\nvalue = 525.822", fillcolor="#f3c7a6"] ;
249 -> 251 ;
252 [label="WAT <= 0.019\nsquared_error = 2244.03\nsamples = 84\nvalue = 724.91", fillcolor="#efb185"] ;
156 -> 252 ;
253 [label="log_WND <= 0.142\nsquared_error = 1302.346\nsamples = 18\nvalue = 692.091", fillcolor="#f0b58a"] ;
252 -> 253 ;
254 [label="avg_mw_per_cap <= 0.962\nsquared_error = 739.697\nsamples = 14\nvalue = 702.386", fillcolor="#efb489"] ;
253 -> 254 ;
255 [label="cos_year <= -0.265\nsquared_error = 384.677\nsamples = 10\nvalue = 692.201", fillcolor="#f0b58a"] ;
254 -> 255 ;
256 [label="squared_error = 118.138\nsamples = 5\nvalue = 701.092", fillcolor="#efb489"] ;
255 -> 256 ;
257 [label="squared_error = 419.741\nsamples = 5\nvalue = 672.936", fillcolor="#f0b78e"] ;
255 -> 257 ;
258 [label="squared_error = 196.523\nsamples = 4\nvalue = 741.09", fillcolor="#efb082"] ;
254 -> 258 ;
259 [label="squared_error = 1052.248\nsamples = 4\nvalue = 642.674", fillcolor="#f1ba93"] ;
253 -> 259 ;
260 [label="log_BIT <= 0.218\nsquared_error = 2126.353\nsamples = 66\nvalue = 733.889", fillcolor="#efb083"] ;
252 -> 260 ;
261 [label="avg_mw_per_cap <= 0.711\nsquared_error = 1626.873\nsamples = 48\nvalue = 717.519", fillcolor="#efb286"] ;
260 -> 261 ;
262 [label="sin_year <= 0.713\nsquared_error = 1750.795\nsamples = 26\nvalue = 695.549", fillcolor="#f0b48a"] ;
261 -> 262 ;
263 [label="log_WAT <= 0.042\nsquared_error = 912.727\nsamples = 17\nvalue = 679.808", fillcolor="#f0b68c"] ;
262 -> 263 ;
264 [label="squared_error = 1123.487\nsamples = 7\nvalue = 668.456", fillcolor="#f0b78e"] ;
263 -> 264 ;
265 [label="OTH <= 0.04\nsquared_error = 676.577\nsamples = 10\nvalue = 686.294", fillcolor="#f0b58b"] ;
263 -> 265 ;
266 [label="squared_error = 0.0\nsamples = 1\nvalue = 669.935", fillcolor="#f0b78e"] ;
265 -> 266 ;
267 [label="avg_mw_per_cap <= 0.653\nsquared_error = 706.45\nsamples = 9\nvalue = 687.553", fillcolor="#f0b58b"] ;
265 -> 267 ;
268 [label="squared_error = 221.004\nsamples = 5\nvalue = 665.5", fillcolor="#f0b88f"] ;
267 -> 268 ;
269 [label="squared_error = 43.513\nsamples = 4\nvalue = 713.281", fillcolor="#efb387"] ;
267 -> 269 ;
270 [label="NG <= 0.203\nsquared_error = 2093.908\nsamples = 9\nvalue = 717.194", fillcolor="#efb286"] ;
262 -> 270 ;
271 [label="squared_error = 1375.651\nsamples = 5\nvalue = 697.682", fillcolor="#f0b489"] ;
270 -> 271 ;
272 [label="squared_error = 1598.869\nsamples = 4\nvalue = 749.715", fillcolor="#eeaf81"] ;
270 -> 272 ;
273 [label="BIT <= 0.233\nsquared_error = 448.758\nsamples = 22\nvalue = 740.71", fillcolor="#efb082"] ;
261 -> 273 ;
274 [label="NG_price <= 0.31\nsquared_error = 468.115\nsamples = 21\nvalue = 742.047", fillcolor="#efaf82"] ;
273 -> 274 ;
275 [label="NG_price <= 0.101\nsquared_error = 214.535\nsamples = 11\nvalue = 732.911", fillcolor="#efb084"] ;
274 -> 275 ;
276 [label="squared_error = 0.066\nsamples = 2\nvalue = 754.09", fillcolor="#eeae80"] ;
275 -> 276 ;
277 [label="WAT <= 0.043\nsquared_error = 149.781\nsamples = 9\nvalue = 728.676", fillcolor="#efb184"] ;
275 -> 277 ;
278 [label="squared_error = 55.617\nsamples = 8\nvalue = 731.32", fillcolor="#efb184"] ;
277 -> 278 ;
279 [label="squared_error = -0.0\nsamples = 1\nvalue = 691.659", fillcolor="#f0b58a"] ;
277 -> 279 ;
280 [label="log_SUN <= 0.009\nsquared_error = 552.085\nsamples = 10\nvalue = 753.009", fillcolor="#eeae80"] ;
274 -> 280 ;
281 [label="squared_error = 616.798\nsamples = 6\nvalue = 744.971", fillcolor="#efaf81"] ;
280 -> 281 ;
282 [label="squared_error = 212.746\nsamples = 4\nvalue = 765.066", fillcolor="#eead7e"] ;
280 -> 282 ;
283 [label="squared_error = 0.0\nsamples = 1\nvalue = 726.007", fillcolor="#efb185"] ;
273 -> 283 ;
284 [label="NG <= 0.202\nsquared_error = 1228.703\nsamples = 18\nvalue = 771.744", fillcolor="#eeac7d"] ;
260 -> 284 ;
285 [label="log_NG_price <= 0.217\nsquared_error = 1214.631\nsamples = 13\nvalue = 774.618", fillcolor="#eeac7c"] ;
284 -> 285 ;
286 [label="squared_error = 0.0\nsamples = 1\nvalue = 689.21", fillcolor="#f0b58b"] ;
285 -> 286 ;
287 [label="sin_6mo <= -0.999\nsquared_error = 569.434\nsamples = 12\nvalue = 782.752", fillcolor="#eeab7b"] ;
285 -> 287 ;
288 [label="squared_error = 0.0\nsamples = 1\nvalue = 814.525", fillcolor="#eda876"] ;
287 -> 288 ;
289 [label="cos_6mo <= -0.872\nsquared_error = 544.908\nsamples = 11\nvalue = 781.164", fillcolor="#eeab7b"] ;
287 -> 289 ;
290 [label="squared_error = 53.754\nsamples = 2\nvalue = 757.42", fillcolor="#eeae7f"] ;
289 -> 290 ;
291 [label="sin_6mo <= -0.776\nsquared_error = 514.535\nsamples = 9\nvalue = 785.354", fillcolor="#eeab7b"] ;
289 -> 291 ;
292 [label="squared_error = 0.0\nsamples = 1\nvalue = 731.909", fillcolor="#efb184"] ;
291 -> 292 ;
293 [label="squared_error = 357.017\nsamples = 8\nvalue = 788.694", fillcolor="#eeaa7a"] ;
291 -> 293 ;
294 [label="squared_error = 1189.618\nsamples = 5\nvalue = 764.4", fillcolor="#eead7e"] ;
284 -> 294 ;
295 [label="WAT <= 0.022\nsquared_error = 22380.016\nsamples = 625\nvalue = 569.566", fillcolor="#f2c29f"] ;
111 -> 295 ;
296 [label="SUN <= 0.008\nsquared_error = 22894.203\nsamples = 577\nvalue = 576.569", fillcolor="#f2c19e"] ;
295 -> 296 ;
297 [label="log_avg_mw_per_cap <= 0.201\nsquared_error = 24752.899\nsamples = 386\nvalue = 620.733", fillcolor="#f1bc96"] ;
296 -> 297 ;
298 [label="DFO <= 0.001\nsquared_error = 21187.293\nsamples = 35\nvalue = 928.614", fillcolor="#ea9b63"] ;
297 -> 298 ;
299 [label="avg_mw_per_cap <= 0.05\nsquared_error = 1261.655\nsamples = 26\nvalue = 858.024", fillcolor="#eca36e"] ;
298 -> 299 ;
300 [label="sin_6mo <= 0.786\nsquared_error = 283.583\nsamples = 9\nvalue = 894.822", fillcolor="#eb9f68"] ;
299 -> 300 ;
301 [label="squared_error = 309.003\nsamples = 7\nvalue = 901.032", fillcolor="#eb9e67"] ;
300 -> 301 ;
302 [label="squared_error = 1.345\nsamples = 2\nvalue = 882.402", fillcolor="#eba06a"] ;
300 -> 302 ;
303 [label="avg_mw_per_cap <= 0.059\nsquared_error = 548.576\nsamples = 17\nvalue = 835.946", fillcolor="#eda572"] ;
299 -> 303 ;
304 [label="squared_error = 4.295\nsamples = 2\nvalue = 805.575", fillcolor="#eda977"] ;
303 -> 304 ;
305 [label="log_NG_price <= 0.44\nsquared_error = 443.093\nsamples = 15\nvalue = 841.73", fillcolor="#eca571"] ;
303 -> 305 ;
306 [label="squared_error = 236.384\nsamples = 7\nvalue = 823.798", fillcolor="#eda774"] ;
305 -> 306 ;
307 [label="squared_error = 250.614\nsamples = 8\nvalue = 852.766", fillcolor="#eca46f"] ;
305 -> 307 ;
308 [label="cos_year <= -0.681\nsquared_error = 31140.959\nsamples = 9\nvalue = 1069.794", fillcolor="#e78c4b"] ;
298 -> 308 ;
309 [label="squared_error = 23430.84\nsamples = 4\nvalue = 1150.241", fillcolor="#e6843d"] ;
308 -> 309 ;
310 [label="squared_error = 25907.653\nsamples = 5\nvalue = 989.347", fillcolor="#e99558"] ;
308 -> 310 ;
311 [label="av_lat <= 0.425\nsquared_error = 14438.001\nsamples = 351\nvalue = 589.263", fillcolor="#f2c09c"] ;
297 -> 311 ;
312 [label="BIT <= 0.258\nsquared_error = 11354.781\nsamples = 291\nvalue = 561.384", fillcolor="#f3c3a0"] ;
311 -> 312 ;
313 [label="MSW <= 0.004\nsquared_error = 3232.685\nsamples = 95\nvalue = 481.56", fillcolor="#f4cbae"] ;
312 -> 313 ;
314 [label="av_lat <= 0.195\nsquared_error = 1311.241\nsamples = 51\nvalue = 443.998", fillcolor="#f5cfb4"] ;
313 -> 314 ;
315 [label="squared_error = 2681.427\nsamples = 8\nvalue = 509.414", fillcolor="#f4c8a9"] ;
314 -> 315 ;
316 [label="log_OTH <= 0.002\nsquared_error = 301.849\nsamples = 43\nvalue = 433.569", fillcolor="#f5d1b6"] ;
314 -> 316 ;
317 [label="log_avg_mw_per_cap <= 0.432\nsquared_error = 145.322\nsamples = 22\nvalue = 441.519", fillcolor="#f5d0b5"] ;
316 -> 317 ;
318 [label="sin_year <= 0.97\nsquared_error = 77.782\nsamples = 10\nvalue = 450.357", fillcolor="#f5cfb3"] ;
317 -> 318 ;
319 [label="cos_year <= -0.013\nsquared_error = 70.058\nsamples = 9\nvalue = 449.459", fillcolor="#f5cfb3"] ;
318 -> 319 ;
320 [label="squared_error = 10.993\nsamples = 2\nvalue = 462.067", fillcolor="#f5cdb1"] ;
319 -> 320 ;
321 [label="squared_error = 35.149\nsamples = 7\nvalue = 446.307", fillcolor="#f5cfb4"] ;
319 -> 321 ;
322 [label="squared_error = 0.0\nsamples = 1\nvalue = 463.831", fillcolor="#f5cdb1"] ;
318 -> 322 ;
323 [label="cos_6mo <= -0.858\nsquared_error = 74.22\nsamples = 12\nvalue = 433.664", fillcolor="#f5d0b6"] ;
317 -> 323 ;
324 [label="squared_error = 1.075\nsamples = 2\nvalue = 443.361", fillcolor="#f5cfb4"] ;
323 -> 324 ;
325 [label="avg_mw_per_cap <= 0.74\nsquared_error = 52.273\nsamples = 10\nvalue = 429.934", fillcolor="#f5d1b7"] ;
323 -> 325 ;
326 [label="squared_error = 19.511\nsamples = 8\nvalue = 426.768", fillcolor="#f6d1b7"] ;
325 -> 326 ;
327 [label="squared_error = 16.668\nsamples = 2\nvalue = 440.488", fillcolor="#f5d0b5"] ;
325 -> 327 ;
328 [label="log_avg_mw_per_cap <= 0.531\nsquared_error = 332.856\nsamples = 21\nvalue = 425.846", fillcolor="#f6d1b7"] ;
316 -> 328 ;
329 [label="NG_price <= 0.495\nsquared_error = 159.978\nsamples = 12\nvalue = 438.146", fillcolor="#f5d0b5"] ;
328 -> 329 ;
330 [label="squared_error = 68.137\nsamples = 6\nvalue = 430.028", fillcolor="#f5d1b7"] ;
329 -> 330 ;
331 [label="squared_error = 138.564\nsamples = 6\nvalue = 444.64", fillcolor="#f5cfb4"] ;
329 -> 331 ;
332 [label="av_lon <= 0.728\nsquared_error = 186.118\nsamples = 9\nvalue = 412.823", fillcolor="#f6d3b9"] ;
328 -> 332 ;
333 [label="squared_error = 58.115\nsamples = 6\nvalue = 405.169", fillcolor="#f6d4bb"] ;
332 -> 333 ;
334 [label="squared_error = 15.264\nsamples = 3\nvalue = 431.193", fillcolor="#f5d1b6"] ;
332 -> 334 ;
335 [label="log_WAT <= 0.0\nsquared_error = 1880.569\nsamples = 44\nvalue = 525.75", fillcolor="#f3c7a6"] ;
313 -> 335 ;
336 [label="avg_mw_per_cap <= 0.545\nsquared_error = 3866.791\nsamples = 10\nvalue = 499.791", fillcolor="#f4c9ab"] ;
335 -> 336 ;
337 [label="squared_error = 368.378\nsamples = 2\nvalue = 447.536", fillcolor="#f5cfb4"] ;
336 -> 337 ;
338 [label="squared_error = 3873.126\nsamples = 8\nvalue = 514.042", fillcolor="#f4c8a8"] ;
336 -> 338 ;
339 [label="WAT <= 0.001\nsquared_error = 1145.619\nsamples = 34\nvalue = 532.48", fillcolor="#f3c6a5"] ;
335 -> 339 ;
340 [label="log_MSW <= 0.009\nsquared_error = 511.559\nsamples = 12\nvalue = 563.23", fillcolor="#f3c3a0"] ;
339 -> 340 ;
341 [label="squared_error = 0.37\nsamples = 2\nvalue = 538.053", fillcolor="#f3c5a4"] ;
340 -> 341 ;
342 [label="sin_year <= 0.703\nsquared_error = 483.931\nsamples = 10\nvalue = 566.587", fillcolor="#f2c2a0"] ;
340 -> 342 ;
343 [label="squared_error = 260.214\nsamples = 5\nvalue = 553.604", fillcolor="#f3c4a2"] ;
342 -> 343 ;
344 [label="squared_error = 187.364\nsamples = 5\nvalue = 586.063", fillcolor="#f2c09c"] ;
342 -> 344 ;
345 [label="log_NG <= 0.514\nsquared_error = 802.863\nsamples = 22\nvalue = 518.351", fillcolor="#f4c7a8"] ;
339 -> 345 ;
346 [label="squared_error = 249.268\nsamples = 6\nvalue = 487.442", fillcolor="#f4cbad"] ;
345 -> 346 ;
347 [label="log_avg_mw_per_cap <= 0.473\nsquared_error = 461.872\nsamples = 16\nvalue = 531.428", fillcolor="#f3c6a5"] ;
345 -> 347 ;
348 [label="squared_error = 218.687\nsamples = 3\nvalue = 501.461", fillcolor="#f4c9ab"] ;
347 -> 348 ;
349 [label="NG_price <= 0.273\nsquared_error = 255.046\nsamples = 13\nvalue = 538.563", fillcolor="#f3c5a4"] ;
347 -> 349 ;
350 [label="squared_error = 105.238\nsamples = 6\nvalue = 553.846", fillcolor="#f3c4a2"] ;
349 -> 350 ;
351 [label="squared_error = 115.066\nsamples = 7\nvalue = 529.159", fillcolor="#f3c6a6"] ;
349 -> 351 ;
352 [label="avg_mw_per_cap <= 0.41\nsquared_error = 10904.318\nsamples = 196\nvalue = 596.234", fillcolor="#f2bf9b"] ;
312 -> 352 ;
353 [label="avg_mw_per_cap <= 0.353\nsquared_error = 26564.968\nsamples = 11\nvalue = 443.778", fillcolor="#f5cfb4"] ;
352 -> 353 ;
354 [label="squared_error = 8541.014\nsamples = 3\nvalue = 537.848", fillcolor="#f3c5a4"] ;
353 -> 354 ;
355 [label="squared_error = 28905.739\nsamples = 8\nvalue = 388.904", fillcolor="#f6d5bd"] ;
353 -> 355 ;
356 [label="BIT <= 0.337\nsquared_error = 8512.483\nsamples = 185\nvalue = 605.286", fillcolor="#f2be99"] ;
352 -> 356 ;
357 [label="NG_price <= 0.4\nsquared_error = 7492.398\nsamples = 152\nvalue = 588.967", fillcolor="#f2c09c"] ;
356 -> 357 ;
358 [label="log_NG_price <= 0.063\nsquared_error = 5666.258\nsamples = 104\nvalue = 569.25", fillcolor="#f2c29f"] ;
357 -> 358 ;
359 [label="squared_error = 5333.197\nsamples = 8\nvalue = 463.743", fillcolor="#f5cdb1"] ;
358 -> 359 ;
360 [label="log_NG_price <= 0.239\nsquared_error = 5000.803\nsamples = 96\nvalue = 575.384", fillcolor="#f2c19e"] ;
358 -> 360 ;
361 [label="MSW <= 0.01\nsquared_error = 4994.574\nsamples = 54\nvalue = 563.329", fillcolor="#f3c3a0"] ;
360 -> 361 ;
362 [label="log_MSW <= 0.005\nsquared_error = 5590.294\nsamples = 47\nvalue = 559.879", fillcolor="#f3c3a1"] ;
361 -> 362 ;
363 [label="log_WAT <= 0.002\nsquared_error = 6002.404\nsamples = 41\nvalue = 563.851", fillcolor="#f3c3a0"] ;
362 -> 363 ;
364 [label="log_NG <= 0.497\nsquared_error = 3358.025\nsamples = 26\nvalue = 580.596", fillcolor="#f2c19d"] ;
363 -> 364 ;
365 [label="sin_6mo <= 0.999\nsquared_error = 2930.152\nsamples = 24\nvalue = 575.663", fillcolor="#f2c19e"] ;
364 -> 365 ;
366 [label="squared_error = 3062.735\nsamples = 22\nvalue = 570.667", fillcolor="#f2c29f"] ;
365 -> 366 ;
367 [label="squared_error = 72.505\nsamples = 2\nvalue = 615.63", fillcolor="#f1bd97"] ;
365 -> 367 ;
368 [label="squared_error = 117.922\nsamples = 2\nvalue = 691.591", fillcolor="#f0b58a"] ;
364 -> 368 ;
369 [label="sin_6mo <= 0.471\nsquared_error = 9455.682\nsamples = 15\nvalue = 532.371", fillcolor="#f3c6a5"] ;
363 -> 369 ;
370 [label="log_avg_mw_per_cap <= 0.449\nsquared_error = 10845.499\nsamples = 9\nvalue = 565.903", fillcolor="#f2c2a0"] ;
369 -> 370 ;
371 [label="squared_error = 1646.189\nsamples = 2\nvalue = 679.743", fillcolor="#f0b68c"] ;
370 -> 371 ;
372 [label="squared_error = 5725.435\nsamples = 7\nvalue = 508.983", fillcolor="#f4c8a9"] ;
370 -> 372 ;
373 [label="squared_error = 3154.511\nsamples = 6\nvalue = 482.073", fillcolor="#f4cbae"] ;
369 -> 373 ;
374 [label="squared_error = 1691.345\nsamples = 6\nvalue = 531.276", fillcolor="#f3c6a5"] ;
362 -> 374 ;
375 [label="squared_error = 1027.198\nsamples = 7\nvalue = 583.539", fillcolor="#f2c09d"] ;
361 -> 375 ;
376 [label="avg_mw_per_cap <= 0.651\nsquared_error = 4593.26\nsamples = 42\nvalue = 590.611", fillcolor="#f2c09b"] ;
360 -> 376 ;
377 [label="avg_mw_per_cap <= 0.627\nsquared_error = 6244.419\nsamples = 14\nvalue = 551.753", fillcolor="#f3c4a2"] ;
376 -> 377 ;
378 [label="log_SUN <= 0.002\nsquared_error = 6202.522\nsamples = 11\nvalue = 573.633", fillcolor="#f2c19e"] ;
377 -> 378 ;
379 [label="squared_error = 9955.12\nsamples = 7\nvalue = 576.579", fillcolor="#f2c19e"] ;
378 -> 379 ;
380 [label="squared_error = 2054.617\nsamples = 4\nvalue = 570.393", fillcolor="#f2c29f"] ;
378 -> 380 ;
381 [label="squared_error = 625.144\nsamples = 3\nvalue = 486.112", fillcolor="#f4cbad"] ;
377 -> 381 ;
382 [label="log_SUN <= 0.003\nsquared_error = 2235.516\nsamples = 28\nvalue = 613.278", fillcolor="#f1bd98"] ;
376 -> 382 ;
383 [label="OTH <= 0.066\nsquared_error = 1296.13\nsamples = 21\nvalue = 605.068", fillcolor="#f2be99"] ;
382 -> 383 ;
384 [label="cos_year <= -0.842\nsquared_error = 1114.565\nsamples = 20\nvalue = 609.704", fillcolor="#f2be98"] ;
383 -> 384 ;
385 [label="squared_error = 635.994\nsamples = 7\nvalue = 626.44", fillcolor="#f1bc95"] ;
384 -> 385 ;
386 [label="SUN <= 0.0\nsquared_error = 1080.913\nsamples = 13\nvalue = 595.479", fillcolor="#f2bf9b"] ;
384 -> 386 ;
387 [label="squared_error = 122.535\nsamples = 6\nvalue = 565.041", fillcolor="#f2c2a0"] ;
386 -> 387 ;
388 [label="squared_error = 486.833\nsamples = 7\nvalue = 620.383", fillcolor="#f1bc96"] ;
386 -> 388 ;
389 [label="squared_error = -0.0\nsamples = 1\nvalue = 547.881", fillcolor="#f3c4a3"] ;
383 -> 389 ;
390 [label="squared_error = 4910.338\nsamples = 7\nvalue = 654.327", fillcolor="#f1b991"] ;
382 -> 390 ;
391 [label="log_avg_mw_per_cap <= 0.408\nsquared_error = 8729.665\nsamples = 48\nvalue = 634.973", fillcolor="#f1bb94"] ;
357 -> 391 ;
392 [label="squared_error = 617.857\nsamples = 2\nvalue = 935.893", fillcolor="#ea9b61"] ;
391 -> 392 ;
393 [label="NG <= 0.611\nsquared_error = 6497.459\nsamples = 46\nvalue = 627.054", fillcolor="#f1bc95"] ;
391 -> 393 ;
394 [label="cos_year <= 0.713\nsquared_error = 5985.073\nsamples = 18\nvalue = 580.444", fillcolor="#f2c19d"] ;
393 -> 394 ;
395 [label="cos_year <= -0.721\nsquared_error = 4654.062\nsamples = 12\nvalue = 549.208", fillcolor="#f3c4a2"] ;
394 -> 395 ;
396 [label="squared_error = 656.915\nsamples = 3\nvalue = 602.515", fillcolor="#f2be99"] ;
395 -> 396 ;
397 [label="SUN <= 0.002\nsquared_error = 4723.508\nsamples = 9\nvalue = 531.439", fillcolor="#f3c6a5"] ;
395 -> 397 ;
398 [label="squared_error = 583.035\nsamples = 8\nvalue = 550.954", fillcolor="#f3c4a2"] ;
397 -> 398 ;
399 [label="squared_error = -0.0\nsamples = 1\nvalue = 316.778", fillcolor="#f8ddca"] ;
397 -> 399 ;
400 [label="squared_error = 2792.971\nsamples = 6\nvalue = 642.916", fillcolor="#f1ba93"] ;
394 -> 400 ;
401 [label="avg_mw_per_cap <= 0.59\nsquared_error = 5268.471\nsamples = 28\nvalue = 648.567", fillcolor="#f1b992"] ;
393 -> 401 ;
402 [label="squared_error = 6106.667\nsamples = 4\nvalue = 544.918", fillcolor="#f3c5a3"] ;
401 -> 402 ;
403 [label="sin_year <= 0.703\nsquared_error = 3206.998\nsamples = 24\nvalue = 664.69", fillcolor="#f0b88f"] ;
401 -> 403 ;
404 [label="sin_year <= 0.247\nsquared_error = 2718.785\nsamples = 19\nvalue = 676.864", fillcolor="#f0b68d"] ;
403 -> 404 ;
405 [label="avg_mw_per_cap <= 0.659\nsquared_error = 1167.768\nsamples = 15\nvalue = 668.152", fillcolor="#f0b78e"] ;
404 -> 405 ;
406 [label="squared_error = 32.452\nsamples = 2\nvalue = 718.204", fillcolor="#efb286"] ;
405 -> 406 ;
407 [label="avg_mw_per_cap <= 0.904\nsquared_error = 718.22\nsamples = 13\nvalue = 656.601", fillcolor="#f0b990"] ;
405 -> 407 ;
408 [label="squared_error = 416.7\nsamples = 12\nvalue = 661.874", fillcolor="#f0b88f"] ;
407 -> 408 ;
409 [label="squared_error = -0.0\nsamples = 1\nvalue = 593.333", fillcolor="#f2bf9b"] ;
407 -> 409 ;
410 [label="squared_error = 8426.86\nsamples = 4\nvalue = 723.331", fillcolor="#efb185"] ;
404 -> 410 ;
411 [label="squared_error = 684.811\nsamples = 5\nvalue = 598.6", fillcolor="#f2bf9a"] ;
403 -> 411 ;
412 [label="log_avg_mw_per_cap <= 0.377\nsquared_error = 6777.751\nsamples = 33\nvalue = 676.004", fillcolor="#f0b78d"] ;
356 -> 412 ;
413 [label="squared_error = 2678.446\nsamples = 3\nvalue = 518.45", fillcolor="#f4c7a8"] ;
412 -> 413 ;
414 [label="cos_year <= 0.244\nsquared_error = 4688.586\nsamples = 30\nvalue = 690.327", fillcolor="#f0b58b"] ;
412 -> 414 ;
415 [label="SUN <= 0.004\nsquared_error = 3802.517\nsamples = 20\nvalue = 719.064", fillcolor="#efb286"] ;
414 -> 415 ;
416 [label="log_DFO <= 0.027\nsquared_error = 2415.883\nsamples = 11\nvalue = 700.341", fillcolor="#f0b489"] ;
415 -> 416 ;
417 [label="log_NG_price <= 0.233\nsquared_error = 2946.971\nsamples = 10\nvalue = 699.316", fillcolor="#f0b489"] ;
416 -> 417 ;
418 [label="squared_error = 400.829\nsamples = 2\nvalue = 742.186", fillcolor="#efaf82"] ;
417 -> 418 ;
419 [label="squared_error = 2947.533\nsamples = 8\nvalue = 682.828", fillcolor="#f0b68c"] ;
417 -> 419 ;
420 [label="squared_error = -0.0\nsamples = 1\nvalue = 704.952", fillcolor="#efb388"] ;
416 -> 420 ;
421 [label="log_NG_price <= 0.337\nsquared_error = 4567.945\nsamples = 9\nvalue = 746.526", fillcolor="#eeaf81"] ;
415 -> 421 ;
422 [label="squared_error = 216.932\nsamples = 5\nvalue = 706.871", fillcolor="#efb388"] ;
421 -> 422 ;
423 [label="squared_error = 3834.869\nsamples = 4\nvalue = 825.836", fillcolor="#eda674"] ;
421 -> 423 ;
424 [label="log_DFO <= 0.053\nsquared_error = 1323.107\nsamples = 10\nvalue = 631.257", fillcolor="#f1bb95"] ;
414 -> 424 ;
425 [label="squared_error = 1029.676\nsamples = 7\nvalue = 634.766", fillcolor="#f1bb94"] ;
424 -> 425 ;
426 [label="squared_error = 2420.903\nsamples = 3\nvalue = 613.713", fillcolor="#f1bd98"] ;
424 -> 426 ;
427 [label="WND <= 0.075\nsquared_error = 7234.635\nsamples = 60\nvalue = 725.033", fillcolor="#efb185"] ;
311 -> 427 ;
428 [label="log_NG_price <= 0.125\nsquared_error = 2230.209\nsamples = 24\nvalue = 811.671", fillcolor="#eda876"] ;
427 -> 428 ;
429 [label="squared_error = 1943.599\nsamples = 2\nvalue = 686.922", fillcolor="#f0b58b"] ;
428 -> 429 ;
430 [label="cos_year <= -0.254\nsquared_error = 1214.681\nsamples = 22\nvalue = 819.468", fillcolor="#eda775"] ;
428 -> 430 ;
431 [label="log_WAT <= 0.01\nsquared_error = 967.277\nsamples = 10\nvalue = 845.009", fillcolor="#eca471"] ;
430 -> 431 ;
432 [label="squared_error = 753.805\nsamples = 3\nvalue = 818.713", fillcolor="#eda775"] ;
431 -> 432 ;
433 [label="squared_error = 785.473\nsamples = 7\nvalue = 852.181", fillcolor="#eca46f"] ;
431 -> 433 ;
434 [label="OTH <= 0.001\nsquared_error = 505.11\nsamples = 12\nvalue = 799.603", fillcolor="#eda978"] ;
430 -> 434 ;
435 [label="NG_price <= 0.727\nsquared_error = 105.645\nsamples = 9\nvalue = 808.319", fillcolor="#eda877"] ;
434 -> 435 ;
436 [label="squared_error = 49.099\nsamples = 7\nvalue = 802.533", fillcolor="#eda978"] ;
435 -> 436 ;
437 [label="squared_error = 17.852\nsamples = 2\nvalue = 819.892", fillcolor="#eda775"] ;
435 -> 437 ;
438 [label="squared_error = 223.111\nsamples = 3\nvalue = 756.021", fillcolor="#eeae80"] ;
434 -> 438 ;
439 [label="log_DFO <= 0.016\nsquared_error = 3953.905\nsamples = 36\nvalue = 680.402", fillcolor="#f0b68c"] ;
427 -> 439 ;
440 [label="avg_mw_per_cap <= 0.728\nsquared_error = 1916.089\nsamples = 20\nvalue = 643.499", fillcolor="#f1ba93"] ;
439 -> 440 ;
441 [label="squared_error = 0.0\nsamples = 1\nvalue = 570.385", fillcolor="#f2c29f"] ;
440 -> 441 ;
442 [label="WND <= 0.075\nsquared_error = 1593.165\nsamples = 19\nvalue = 649.592", fillcolor="#f1b992"] ;
440 -> 442 ;
443 [label="squared_error = 1463.486\nsamples = 5\nvalue = 622.698", fillcolor="#f1bc96"] ;
442 -> 443 ;
444 [label="log_WND <= 0.073\nsquared_error = 1115.539\nsamples = 14\nvalue = 663.039", fillcolor="#f0b88f"] ;
442 -> 444 ;
445 [label="squared_error = 53.535\nsamples = 2\nvalue = 697.626", fillcolor="#f0b489"] ;
444 -> 445 ;
446 [label="cos_6mo <= -0.893\nsquared_error = 997.364\nsamples = 12\nvalue = 653.937", fillcolor="#f1b991"] ;
444 -> 446 ;
447 [label="squared_error = -0.0\nsamples = 1\nvalue = 693.278", fillcolor="#f0b58a"] ;
446 -> 447 ;
448 [label="avg_mw_per_cap <= 0.866\nsquared_error = 839.759\nsamples = 11\nvalue = 646.561", fillcolor="#f1ba92"] ;
446 -> 448 ;
449 [label="squared_error = 588.761\nsamples = 6\nvalue = 629.932", fillcolor="#f1bb95"] ;
448 -> 449 ;
450 [label="squared_error = 537.759\nsamples = 5\nvalue = 663.189", fillcolor="#f0b88f"] ;
448 -> 450 ;
451 [label="NG <= 0.495\nsquared_error = 2089.051\nsamples = 16\nvalue = 733.706", fillcolor="#efb083"] ;
439 -> 451 ;
452 [label="squared_error = 1812.31\nsamples = 6\nvalue = 690.074", fillcolor="#f0b58b"] ;
451 -> 452 ;
453 [label="log_NG_price <= 0.244\nsquared_error = 799.651\nsamples = 10\nvalue = 755.521", fillcolor="#eeae80"] ;
451 -> 453 ;
454 [label="squared_error = 156.647\nsamples = 4\nvalue = 733.604", fillcolor="#efb083"] ;
453 -> 454 ;
455 [label="squared_error = 481.905\nsamples = 6\nvalue = 777.439", fillcolor="#eeac7c"] ;
453 -> 455 ;
456 [label="NG <= 0.529\nsquared_error = 5867.057\nsamples = 191\nvalue = 482.264", fillcolor="#f4cbae"] ;
296 -> 456 ;
457 [label="NG_price <= 0.297\nsquared_error = 5425.342\nsamples = 17\nvalue = 633.846", fillcolor="#f1bb94"] ;
456 -> 457 ;
458 [label="squared_error = 4711.849\nsamples = 8\nvalue = 590.856", fillcolor="#f2c09b"] ;
457 -> 458 ;
459 [label="av_lat <= 0.355\nsquared_error = 1655.431\nsamples = 9\nvalue = 683.451", fillcolor="#f0b68c"] ;
457 -> 459 ;
460 [label="squared_error = 1464.12\nsamples = 5\nvalue = 693.433", fillcolor="#f0b58a"] ;
459 -> 460 ;
461 [label="squared_error = 1547.074\nsamples = 4\nvalue = 667.481", fillcolor="#f0b78f"] ;
459 -> 461 ;
462 [label="SGP <= 0.008\nsquared_error = 3334.34\nsamples = 174\nvalue = 466.831", fillcolor="#f5cdb0"] ;
456 -> 462 ;
463 [label="BIT <= 0.186\nsquared_error = 2990.807\nsamples = 150\nvalue = 476.786", fillcolor="#f4ccaf"] ;
462 -> 463 ;
464 [label="av_lon <= 0.534\nsquared_error = 1476.771\nsamples = 114\nvalue = 459.736", fillcolor="#f5ceb2"] ;
463 -> 464 ;
465 [label="sin_6mo <= 0.459\nsquared_error = 469.376\nsamples = 61\nvalue = 488.427", fillcolor="#f4cbad"] ;
464 -> 465 ;
466 [label="log_NG_price <= 0.249\nsquared_error = 581.044\nsamples = 36\nvalue = 492.827", fillcolor="#f4caac"] ;
465 -> 466 ;
467 [label="WND <= 0.027\nsquared_error = 524.761\nsamples = 16\nvalue = 484.295", fillcolor="#f4cbad"] ;
466 -> 467 ;
468 [label="sin_6mo <= -0.465\nsquared_error = 357.315\nsamples = 11\nvalue = 477.238", fillcolor="#f4ccaf"] ;
467 -> 468 ;
469 [label="log_DFO <= 0.001\nsquared_error = 266.665\nsamples = 10\nvalue = 479.912", fillcolor="#f4ccae"] ;
468 -> 469 ;
470 [label="avg_mw_per_cap <= 0.509\nsquared_error = 271.078\nsamples = 9\nvalue = 482.122", fillcolor="#f4cbae"] ;
469 -> 470 ;
471 [label="squared_error = 34.098\nsamples = 2\nvalue = 473.023", fillcolor="#f5ccaf"] ;
470 -> 471 ;
472 [label="squared_error = 309.881\nsamples = 7\nvalue = 484.852", fillcolor="#f4cbad"] ;
470 -> 472 ;
473 [label="squared_error = -0.0\nsamples = 1\nvalue = 465.551", fillcolor="#f5cdb1"] ;
469 -> 473 ;
474 [label="squared_error = -0.0\nsamples = 1\nvalue = 437.116", fillcolor="#f5d0b5"] ;
468 -> 474 ;
475 [label="squared_error = 533.454\nsamples = 5\nvalue = 500.426", fillcolor="#f4c9ab"] ;
467 -> 475 ;
476 [label="OTH <= 0.002\nsquared_error = 518.366\nsamples = 20\nvalue = 499.835", fillcolor="#f4c9ab"] ;
466 -> 476 ;
477 [label="OTH <= 0.001\nsquared_error = 356.518\nsamples = 15\nvalue = 492.435", fillcolor="#f4caac"] ;
476 -> 477 ;
478 [label="log_NG <= 0.655\nsquared_error = 456.62\nsamples = 10\nvalue = 486.421", fillcolor="#f4cbad"] ;
477 -> 478 ;
479 [label="avg_mw_per_cap <= 0.596\nsquared_error = 324.431\nsamples = 9\nvalue = 482.802", fillcolor="#f4cbae"] ;
478 -> 479 ;
480 [label="squared_error = 138.816\nsamples = 4\nvalue = 491.986", fillcolor="#f4caac"] ;
479 -> 480 ;
481 [label="squared_error = 300.894\nsamples = 5\nvalue = 469.945", fillcolor="#f5cdb0"] ;
479 -> 481 ;
482 [label="squared_error = -0.0\nsamples = 1\nvalue = 529.846", fillcolor="#f3c6a6"] ;
478 -> 482 ;
483 [label="squared_error = 39.557\nsamples = 5\nvalue = 502.208", fillcolor="#f4c9aa"] ;
477 -> 483 ;
484 [label="squared_error = 346.803\nsamples = 5\nvalue = 522.035", fillcolor="#f3c7a7"] ;
476 -> 484 ;
485 [label="avg_mw_per_cap <= 0.665\nsquared_error = 291.498\nsamples = 25\nvalue = 483.327", fillcolor="#f4cbae"] ;
465 -> 485 ;
486 [label="NG_price <= 0.271\nsquared_error = 199.402\nsamples = 16\nvalue = 476.498", fillcolor="#f4ccaf"] ;
485 -> 486 ;
487 [label="squared_error = 291.485\nsamples = 6\nvalue = 465.123", fillcolor="#f5cdb1"] ;
486 -> 487 ;
488 [label="log_NG <= 0.655\nsquared_error = 92.919\nsamples = 10\nvalue = 480.95", fillcolor="#f4cbae"] ;
486 -> 488 ;
489 [label="squared_error = 72.572\nsamples = 8\nvalue = 478.965", fillcolor="#f4ccae"] ;
488 -> 489 ;
490 [label="squared_error = 27.281\nsamples = 2\nvalue = 494.18", fillcolor="#f4caac"] ;
488 -> 490 ;
491 [label="cos_year <= -0.96\nsquared_error = 81.132\nsamples = 9\nvalue = 501.537", fillcolor="#f4c9aa"] ;
485 -> 491 ;
492 [label="squared_error = 41.112\nsamples = 2\nvalue = 485.633", fillcolor="#f4cbad"] ;
491 -> 492 ;
493 [label="squared_error = 28.427\nsamples = 7\nvalue = 504.718", fillcolor="#f4c9aa"] ;
491 -> 493 ;
494 [label="log_avg_mw_per_cap <= 0.549\nsquared_error = 754.079\nsamples = 53\nvalue = 429.451", fillcolor="#f5d1b7"] ;
464 -> 494 ;
495 [label="log_BIT <= 0.1\nsquared_error = 505.202\nsamples = 37\nvalue = 418.878", fillcolor="#f6d2b8"] ;
494 -> 495 ;
496 [label="log_BIT <= 0.1\nsquared_error = 356.992\nsamples = 33\nvalue = 415.155", fillcolor="#f6d2b9"] ;
495 -> 496 ;
497 [label="log_SUN <= 0.043\nsquared_error = 270.754\nsamples = 31\nvalue = 417.923", fillcolor="#f6d2b9"] ;
496 -> 497 ;
498 [label="NG_price <= 0.358\nsquared_error = 188.505\nsamples = 16\nvalue = 432.053", fillcolor="#f5d1b6"] ;
497 -> 498 ;
499 [label="av_lat <= 0.169\nsquared_error = 94.402\nsamples = 12\nvalue = 427.552", fillcolor="#f6d1b7"] ;
498 -> 499 ;
500 [label="squared_error = 146.172\nsamples = 5\nvalue = 429.224", fillcolor="#f6d1b7"] ;
499 -> 500 ;
501 [label="squared_error = 63.809\nsamples = 7\nvalue = 426.641", fillcolor="#f6d1b7"] ;
499 -> 501 ;
502 [label="squared_error = 248.397\nsamples = 4\nvalue = 442.982", fillcolor="#f5cfb4"] ;
498 -> 502 ;
503 [label="log_OTH <= 0.011\nsquared_error = 36.857\nsamples = 15\nvalue = 406.23", fillcolor="#f6d3bb"] ;
497 -> 503 ;
504 [label="cos_year <= -0.252\nsquared_error = 14.523\nsamples = 14\nvalue = 407.133", fillcolor="#f6d3ba"] ;
503 -> 504 ;
505 [label="squared_error = 15.473\nsamples = 4\nvalue = 408.91", fillcolor="#f6d3ba"] ;
504 -> 505 ;
506 [label="NG_price <= 0.367\nsquared_error = 12.375\nsamples = 10\nvalue = 406.422", fillcolor="#f6d3bb"] ;
504 -> 506 ;
507 [label="squared_error = 8.806\nsamples = 5\nvalue = 403.662", fillcolor="#f6d4bb"] ;
506 -> 507 ;
508 [label="squared_error = 7.989\nsamples = 5\nvalue = 407.908", fillcolor="#f6d3ba"] ;
506 -> 508 ;
509 [label="squared_error = 0.0\nsamples = 1\nvalue = 380.944", fillcolor="#f7d6bf"] ;
503 -> 509 ;
510 [label="squared_error = 52.52\nsamples = 2\nvalue = 378.473", fillcolor="#f7d6bf"] ;
496 -> 510 ;
511 [label="squared_error = 235.249\nsamples = 4\nvalue = 461.322", fillcolor="#f5ceb1"] ;
495 -> 511 ;
512 [label="log_BIT <= 0.049\nsquared_error = 509.431\nsamples = 16\nvalue = 452.865", fillcolor="#f5ceb3"] ;
494 -> 512 ;
513 [label="squared_error = 319.191\nsamples = 5\nvalue = 425.266", fillcolor="#f6d1b7"] ;
512 -> 513 ;
514 [label="log_MSW <= 0.009\nsquared_error = 234.324\nsamples = 11\nvalue = 462.064", fillcolor="#f5cdb1"] ;
512 -> 514 ;
515 [label="squared_error = 0.0\nsamples = 1\nvalue = 446.352", fillcolor="#f5cfb4"] ;
514 -> 515 ;
516 [label="NG_price <= 0.144\nsquared_error = 233.079\nsamples = 10\nvalue = 462.85", fillcolor="#f5cdb1"] ;
514 -> 516 ;
517 [label="squared_error = 3.683\nsamples = 2\nvalue = 441.075", fillcolor="#f5d0b5"] ;
516 -> 517 ;
518 [label="squared_error = 142.263\nsamples = 8\nvalue = 468.293", fillcolor="#f5cdb0"] ;
516 -> 518 ;
519 [label="log_SUN <= 0.026\nsquared_error = 3663.439\nsamples = 36\nvalue = 537.446", fillcolor="#f3c5a4"] ;
463 -> 519 ;
520 [label="NG_price <= 0.538\nsquared_error = 2896.438\nsamples = 23\nvalue = 520.169", fillcolor="#f3c7a7"] ;
519 -> 520 ;
521 [label="cos_6mo <= 0.863\nsquared_error = 2304.06\nsamples = 20\nvalue = 531.426", fillcolor="#f3c6a5"] ;
520 -> 521 ;
522 [label="avg_mw_per_cap <= 0.584\nsquared_error = 1836.756\nsamples = 16\nvalue = 515.425", fillcolor="#f4c8a8"] ;
521 -> 522 ;
523 [label="squared_error = 300.835\nsamples = 3\nvalue = 574.907", fillcolor="#f2c19e"] ;
522 -> 523 ;
524 [label="log_avg_mw_per_cap <= 0.533\nsquared_error = 1294.81\nsamples = 13\nvalue = 503.529", fillcolor="#f4c9aa"] ;
522 -> 524 ;
525 [label="squared_error = 2209.871\nsamples = 4\nvalue = 526.311", fillcolor="#f3c7a6"] ;
524 -> 525 ;
526 [label="cos_6mo <= -0.868\nsquared_error = 584.879\nsamples = 9\nvalue = 493.766", fillcolor="#f4caac"] ;
524 -> 526 ;
527 [label="squared_error = 843.498\nsamples = 2\nvalue = 477.039", fillcolor="#f4ccaf"] ;
526 -> 527 ;
528 [label="squared_error = 417.232\nsamples = 7\nvalue = 498.327", fillcolor="#f4caab"] ;
526 -> 528 ;
529 [label="squared_error = 633.866\nsamples = 4\nvalue = 579.427", fillcolor="#f2c19d"] ;
521 -> 529 ;
530 [label="squared_error = 686.94\nsamples = 3\nvalue = 448.129", fillcolor="#f5cfb3"] ;
520 -> 530 ;
531 [label="log_NG <= 0.499\nsquared_error = 3003.054\nsamples = 13\nvalue = 580.061", fillcolor="#f2c19d"] ;
519 -> 531 ;
532 [label="squared_error = 2201.058\nsamples = 8\nvalue = 610.729", fillcolor="#f1be98"] ;
531 -> 532 ;
533 [label="squared_error = 679.184\nsamples = 5\nvalue = 534.06", fillcolor="#f3c6a5"] ;
531 -> 533 ;
534 [label="SGP <= 0.017\nsquared_error = 1003.177\nsamples = 24\nvalue = 404.738", fillcolor="#f6d4bb"] ;
462 -> 534 ;
535 [label="log_NG_price <= 0.094\nsquared_error = 757.95\nsamples = 16\nvalue = 395.039", fillcolor="#f6d5bc"] ;
534 -> 535 ;
536 [label="squared_error = 292.146\nsamples = 4\nvalue = 365.701", fillcolor="#f7d8c1"] ;
535 -> 536 ;
537 [label="cos_6mo <= -0.88\nsquared_error = 514.303\nsamples = 12\nvalue = 405.307", fillcolor="#f6d4bb"] ;
535 -> 537 ;
538 [label="squared_error = 27.99\nsamples = 3\nvalue = 383.125", fillcolor="#f7d6be"] ;
537 -> 538 ;
539 [label="sin_year <= -0.28\nsquared_error = 421.48\nsamples = 9\nvalue = 414.814", fillcolor="#f6d3b9"] ;
537 -> 539 ;
540 [label="squared_error = 272.176\nsamples = 2\nvalue = 391.987", fillcolor="#f6d5bd"] ;
539 -> 540 ;
541 [label="squared_error = 189.408\nsamples = 7\nvalue = 423.944", fillcolor="#f6d2b8"] ;
539 -> 541 ;
542 [label="squared_error = 807.498\nsamples = 8\nvalue = 428.543", fillcolor="#f6d1b7"] ;
534 -> 542 ;
543 [label="log_BIT <= 0.04\nsquared_error = 7966.684\nsamples = 48\nvalue = 483.169", fillcolor="#f4cbae"] ;
295 -> 543 ;
544 [label="log_WAT <= 0.027\nsquared_error = 1523.847\nsamples = 20\nvalue = 397.667", fillcolor="#f6d4bc"] ;
543 -> 544 ;
545 [label="squared_error = 45.034\nsamples = 4\nvalue = 340.25", fillcolor="#f7dbc6"] ;
544 -> 545 ;
546 [label="avg_mw_per_cap <= 0.528\nsquared_error = 1094.089\nsamples = 16\nvalue = 407.92", fillcolor="#f6d3ba"] ;
544 -> 546 ;
547 [label="squared_error = 614.152\nsamples = 3\nvalue = 367.592", fillcolor="#f7d8c1"] ;
546 -> 547 ;
548 [label="log_NG_price <= 0.229\nsquared_error = 531.232\nsamples = 13\nvalue = 421.363", fillcolor="#f6d2b8"] ;
546 -> 548 ;
549 [label="log_NG_price <= 0.158\nsquared_error = 440.669\nsamples = 10\nvalue = 414.688", fillcolor="#f6d3b9"] ;
548 -> 549 ;
550 [label="squared_error = 227.055\nsamples = 4\nvalue = 435.407", fillcolor="#f5d0b6"] ;
549 -> 550 ;
551 [label="squared_error = 253.947\nsamples = 6\nvalue = 405.27", fillcolor="#f6d4bb"] ;
549 -> 551 ;
552 [label="squared_error = 222.179\nsamples = 3\nvalue = 442.724", fillcolor="#f5d0b4"] ;
548 -> 552 ;
553 [label="WAT <= 0.032\nsquared_error = 3203.692\nsamples = 28\nvalue = 547.296", fillcolor="#f3c4a3"] ;
543 -> 553 ;
554 [label="log_WAT <= 0.031\nsquared_error = 1395.842\nsamples = 14\nvalue = 499.474", fillcolor="#f4c9ab"] ;
553 -> 554 ;
555 [label="sin_year <= 0.512\nsquared_error = 1013.902\nsamples = 11\nvalue = 489.645", fillcolor="#f4caac"] ;
554 -> 555 ;
556 [label="squared_error = 326.694\nsamples = 7\nvalue = 504.598", fillcolor="#f4c9aa"] ;
555 -> 556 ;
557 [label="squared_error = 838.788\nsamples = 4\nvalue = 453.759", fillcolor="#f5ceb3"] ;
555 -> 557 ;
558 [label="squared_error = 1249.251\nsamples = 3\nvalue = 532.892", fillcolor="#f3c6a5"] ;
554 -> 558 ;
559 [label="cos_6mo <= -0.476\nsquared_error = 437.719\nsamples = 14\nvalue = 595.117", fillcolor="#f2bf9b"] ;
553 -> 559 ;
560 [label="squared_error = 0.0\nsamples = 1\nvalue = 649.938", fillcolor="#f1b991"] ;
559 -> 560 ;
561 [label="log_avg_mw_per_cap <= 0.498\nsquared_error = 308.636\nsamples = 13\nvalue = 592.507", fillcolor="#f2bf9b"] ;
559 -> 561 ;
562 [label="log_BIT <= 0.108\nsquared_error = 124.041\nsamples = 11\nvalue = 588.575", fillcolor="#f2c09c"] ;
561 -> 562 ;
563 [label="squared_error = 24.276\nsamples = 3\nvalue = 601.429", fillcolor="#f2bf9a"] ;
562 -> 563 ;
564 [label="squared_error = 105.96\nsamples = 8\nvalue = 586.165", fillcolor="#f2c09c"] ;
562 -> 564 ;
565 [label="squared_error = 520.301\nsamples = 2\nvalue = 629.858", fillcolor="#f1bb95"] ;
561 -> 565 ;
566 [label="BIT <= 0.005\nsquared_error = 46526.656\nsamples = 268\nvalue = 333.996", fillcolor="#f8dbc7"] ;
32 -> 566 ;
567 [label="SUB <= 0.258\nsquared_error = 18030.096\nsamples = 204\nvalue = 235.226", fillcolor="#fae6d7"] ;
566 -> 567 ;
568 [label="log_OTH <= 0.023\nsquared_error = 10617.237\nsamples = 200\nvalue = 222.464", fillcolor="#fae7da"] ;
567 -> 568 ;
569 [label="log_SUB <= 0.011\nsquared_error = 11155.823\nsamples = 137\nvalue = 253.759", fillcolor="#f9e4d4"] ;
568 -> 569 ;
570 [label="log_NG <= 0.513\nsquared_error = 3396.802\nsamples = 58\nvalue = 309.064", fillcolor="#f8decb"] ;
569 -> 570 ;
571 [label="log_NG_price <= 0.326\nsquared_error = 2365.837\nsamples = 54\nvalue = 316.499", fillcolor="#f8ddca"] ;
570 -> 571 ;
572 [label="DFO <= 0.026\nsquared_error = 3064.267\nsamples = 33\nvalue = 300.95", fillcolor="#f8dfcc"] ;
571 -> 572 ;
573 [label="SUN <= 0.046\nsquared_error = 2737.056\nsamples = 27\nvalue = 284.593", fillcolor="#f9e0cf"] ;
572 -> 573 ;
574 [label="NG <= 0.663\nsquared_error = 2584.889\nsamples = 20\nvalue = 264.906", fillcolor="#f9e3d2"] ;
573 -> 574 ;
575 [label="squared_error = 4093.855\nsamples = 7\nvalue = 248.68", fillcolor="#f9e4d5"] ;
574 -> 575 ;
576 [label="sin_6mo <= 0.998\nsquared_error = 1572.827\nsamples = 13\nvalue = 273.497", fillcolor="#f9e2d1"] ;
574 -> 576 ;
577 [label="WAT <= 0.265\nsquared_error = 1518.306\nsamples = 11\nvalue = 281.505", fillcolor="#f9e1d0"] ;
576 -> 577 ;
578 [label="squared_error = 1191.995\nsamples = 7\nvalue = 287.098", fillcolor="#f9e0cf"] ;
577 -> 578 ;
579 [label="squared_error = 1948.02\nsamples = 4\nvalue = 271.438", fillcolor="#f9e2d1"] ;
577 -> 579 ;
580 [label="squared_error = 131.318\nsamples = 2\nvalue = 236.125", fillcolor="#fae6d7"] ;
576 -> 580 ;
581 [label="squared_error = 407.632\nsamples = 7\nvalue = 327.247", fillcolor="#f8dcc8"] ;
573 -> 581 ;
582 [label="squared_error = 77.229\nsamples = 6\nvalue = 357.458", fillcolor="#f7d9c3"] ;
572 -> 582 ;
583 [label="WAT <= 0.266\nsquared_error = 275.769\nsamples = 21\nvalue = 341.075", fillcolor="#f7dac6"] ;
571 -> 583 ;
584 [label="log_SUN <= 0.042\nsquared_error = 123.846\nsamples = 12\nvalue = 349.754", fillcolor="#f7d9c4"] ;
583 -> 584 ;
585 [label="NG_price <= 0.691\nsquared_error = 109.281\nsamples = 9\nvalue = 353.633", fillcolor="#f7d9c3"] ;
584 -> 585 ;
586 [label="squared_error = 70.989\nsamples = 7\nvalue = 350.919", fillcolor="#f7d9c4"] ;
585 -> 586 ;
587 [label="squared_error = 29.845\nsamples = 2\nvalue = 369.912", fillcolor="#f7d7c1"] ;
585 -> 587 ;
588 [label="squared_error = 4.602\nsamples = 3\nvalue = 338.896", fillcolor="#f8dbc6"] ;
584 -> 588 ;
589 [label="DFO <= 0.033\nsquared_error = 208.156\nsamples = 9\nvalue = 327.332", fillcolor="#f8dcc8"] ;
583 -> 589 ;
590 [label="squared_error = 211.87\nsamples = 5\nvalue = 329.566", fillcolor="#f8dcc7"] ;
589 -> 590 ;
591 [label="squared_error = 194.46\nsamples = 4\nvalue = 325.098", fillcolor="#f8dcc8"] ;
589 -> 591 ;
592 [label="squared_error = 4857.151\nsamples = 4\nvalue = 190.107", fillcolor="#fbebdf"] ;
570 -> 592 ;
593 [label="cos_6mo <= -0.87\nsquared_error = 12959.099\nsamples = 79\nvalue = 212.882", fillcolor="#fae8db"] ;
569 -> 593 ;
594 [label="cos_year <= 0.005\nsquared_error = 4593.032\nsamples = 11\nvalue = 138.453", fillcolor="#fcf0e8"] ;
593 -> 594 ;
595 [label="squared_error = 3605.394\nsamples = 6\nvalue = 176.854", fillcolor="#fbece1"] ;
594 -> 595 ;
596 [label="squared_error = 2994.966\nsamples = 5\nvalue = 104.318", fillcolor="#fdf4ed"] ;
594 -> 596 ;
597 [label="log_WAT <= 0.533\nsquared_error = 13282.694\nsamples = 68\nvalue = 225.793", fillcolor="#fae7d9"] ;
593 -> 597 ;
598 [label="DFO <= 0.001\nsquared_error = 2783.345\nsamples = 55\nvalue = 185.123", fillcolor="#fbebe0"] ;
597 -> 598 ;
599 [label="log_SUB <= 0.038\nsquared_error = 1946.976\nsamples = 23\nvalue = 217.53", fillcolor="#fae8da"] ;
598 -> 599 ;
600 [label="sin_year <= 0.005\nsquared_error = 852.967\nsamples = 9\nvalue = 187.739", fillcolor="#fbebdf"] ;
599 -> 600 ;
601 [label="squared_error = 584.113\nsamples = 6\nvalue = 198.837", fillcolor="#fbeadd"] ;
600 -> 601 ;
602 [label="squared_error = 181.445\nsamples = 3\nvalue = 154.444", fillcolor="#fceee5"] ;
600 -> 602 ;
603 [label="log_avg_mw_per_cap <= 0.409\nsquared_error = 1828.325\nsamples = 14\nvalue = 232.426", fillcolor="#fae6d8"] ;
599 -> 603 ;
604 [label="cos_6mo <= 0.433\nsquared_error = 1629.912\nsamples = 11\nvalue = 242.086", fillcolor="#fae5d6"] ;
603 -> 604 ;
605 [label="squared_error = 1069.848\nsamples = 7\nvalue = 257.845", fillcolor="#f9e3d4"] ;
604 -> 605 ;
606 [label="squared_error = 1639.865\nsamples = 4\nvalue = 222.824", fillcolor="#fae7d9"] ;
604 -> 606 ;
607 [label="squared_error = 21.063\nsamples = 3\nvalue = 184.127", fillcolor="#fbebe0"] ;
603 -> 607 ;
608 [label="log_SUB <= 0.027\nsquared_error = 1905.319\nsamples = 32\nvalue = 158.608", fillcolor="#fbeee4"] ;
598 -> 608 ;
609 [label="avg_mw_per_cap <= 0.495\nsquared_error = 1566.709\nsamples = 10\nvalue = 128.518", fillcolor="#fcf1e9"] ;
608 -> 609 ;
610 [label="squared_error = 1467.868\nsamples = 6\nvalue = 147.875", fillcolor="#fcefe6"] ;
609 -> 610 ;
611 [label="squared_error = 916.165\nsamples = 4\nvalue = 109.161", fillcolor="#fdf3ed"] ;
609 -> 611 ;
612 [label="log_WAT <= 0.529\nsquared_error = 1565.444\nsamples = 22\nvalue = 169.892", fillcolor="#fbede2"] ;
608 -> 612 ;
613 [label="log_avg_mw_per_cap <= 0.429\nsquared_error = 1024.786\nsamples = 17\nvalue = 183.289", fillcolor="#fbebe0"] ;
612 -> 613 ;
614 [label="SUN <= 0.01\nsquared_error = 1148.788\nsamples = 9\nvalue = 164.248", fillcolor="#fbede3"] ;
613 -> 614 ;
615 [label="squared_error = 566.932\nsamples = 6\nvalue = 180.875", fillcolor="#fbece1"] ;
614 -> 615 ;
616 [label="squared_error = 653.71\nsamples = 3\nvalue = 130.994", fillcolor="#fcf1e9"] ;
614 -> 616 ;
617 [label="squared_error = 175.687\nsamples = 8\nvalue = 202.33", fillcolor="#fbe9dd"] ;
613 -> 617 ;
618 [label="squared_error = 1033.656\nsamples = 5\nvalue = 129.701", fillcolor="#fcf1e9"] ;
612 -> 618 ;
619 [label="log_DFO <= 0.008\nsquared_error = 19922.663\nsamples = 13\nvalue = 406.548", fillcolor="#f6d3ba"] ;
597 -> 619 ;
620 [label="squared_error = 435.147\nsamples = 3\nvalue = 143.849", fillcolor="#fcf0e7"] ;
619 -> 620 ;
621 [label="log_NG_price <= 0.352\nsquared_error = 7257.472\nsamples = 10\nvalue = 459.088", fillcolor="#f5ceb2"] ;
619 -> 621 ;
622 [label="squared_error = 0.0\nsamples = 1\nvalue = 617.349", fillcolor="#f1bd97"] ;
621 -> 622 ;
623 [label="sin_year <= -0.503\nsquared_error = 3927.872\nsamples = 9\nvalue = 434.741", fillcolor="#f5d0b6"] ;
621 -> 623 ;
624 [label="squared_error = 218.735\nsamples = 3\nvalue = 481.094", fillcolor="#f4cbae"] ;
623 -> 624 ;
625 [label="squared_error = 4196.994\nsamples = 6\nvalue = 414.139", fillcolor="#f6d3b9"] ;
623 -> 625 ;
626 [label="GEO <= 0.431\nsquared_error = 897.976\nsamples = 63\nvalue = 145.191", fillcolor="#fcefe7"] ;
568 -> 626 ;
627 [label="NG <= 0.313\nsquared_error = 561.906\nsamples = 32\nvalue = 126.788", fillcolor="#fcf1ea"] ;
626 -> 627 ;
628 [label="squared_error = 330.13\nsamples = 6\nvalue = 145.611", fillcolor="#fcefe6"] ;
627 -> 628 ;
629 [label="log_SUN <= 0.151\nsquared_error = 496.466\nsamples = 26\nvalue = 121.323", fillcolor="#fcf2eb"] ;
627 -> 629 ;
630 [label="avg_mw_per_cap <= 0.793\nsquared_error = 288.797\nsamples = 9\nvalue = 140.563", fillcolor="#fcf0e7"] ;
629 -> 630 ;
631 [label="squared_error = 38.397\nsamples = 6\nvalue = 129.299", fillcolor="#fcf1e9"] ;
630 -> 631 ;
632 [label="squared_error = 28.421\nsamples = 3\nvalue = 163.089", fillcolor="#fbeee4"] ;
630 -> 632 ;
633 [label="cos_6mo <= -0.843\nsquared_error = 368.041\nsamples = 17\nvalue = 113.452", fillcolor="#fcf3ec"] ;
629 -> 633 ;
634 [label="squared_error = 264.34\nsamples = 5\nvalue = 104.293", fillcolor="#fdf4ed"] ;
633 -> 634 ;
635 [label="cos_6mo <= -0.035\nsquared_error = 359.012\nsamples = 12\nvalue = 117.727", fillcolor="#fcf2eb"] ;
633 -> 635 ;
636 [label="squared_error = 152.948\nsamples = 4\nvalue = 134.447", fillcolor="#fcf1e8"] ;
635 -> 636 ;
637 [label="squared_error = 295.309\nsamples = 8\nvalue = 111.646", fillcolor="#fdf3ec"] ;
635 -> 637 ;
638 [label="avg_mw_per_cap <= 0.825\nsquared_error = 573.092\nsamples = 31\nvalue = 163.145", fillcolor="#fbeee4"] ;
626 -> 638 ;
639 [label="NG_price <= 0.285\nsquared_error = 193.609\nsamples = 16\nvalue = 143.078", fillcolor="#fcf0e7"] ;
638 -> 639 ;
640 [label="squared_error = 118.969\nsamples = 6\nvalue = 132.946", fillcolor="#fcf1e9"] ;
639 -> 640 ;
641 [label="OTH <= 0.036\nsquared_error = 153.935\nsamples = 10\nvalue = 148.144", fillcolor="#fcefe6"] ;
639 -> 641 ;
642 [label="squared_error = 51.53\nsamples = 6\nvalue = 142.639", fillcolor="#fcf0e7"] ;
641 -> 642 ;
643 [label="squared_error = 185.523\nsamples = 4\nvalue = 158.053", fillcolor="#fceee4"] ;
641 -> 643 ;
644 [label="cos_year <= -0.265\nsquared_error = 104.817\nsamples = 15\nvalue = 184.214", fillcolor="#fbebe0"] ;
638 -> 644 ;
645 [label="log_SUN <= 0.095\nsquared_error = 41.369\nsamples = 11\nvalue = 187.927", fillcolor="#fbebdf"] ;
644 -> 645 ;
646 [label="log_NG_price <= 0.293\nsquared_error = 21.549\nsamples = 9\nvalue = 189.871", fillcolor="#fbebdf"] ;
645 -> 646 ;
647 [label="squared_error = 2.773\nsamples = 3\nvalue = 186.041", fillcolor="#fbebe0"] ;
646 -> 647 ;
648 [label="squared_error = 19.937\nsamples = 6\nvalue = 191.786", fillcolor="#fbeadf"] ;
646 -> 648 ;
649 [label="squared_error = 1.655\nsamples = 2\nvalue = 176.266", fillcolor="#fbece1"] ;
645 -> 649 ;
650 [label="squared_error = 145.649\nsamples = 4\nvalue = 175.551", fillcolor="#fbece1"] ;
644 -> 650 ;
651 [label="squared_error = 340.071\nsamples = 4\nvalue = 832.914", fillcolor="#eda673"] ;
567 -> 651 ;
652 [label="log_SUB <= 0.212\nsquared_error = 22022.919\nsamples = 64\nvalue = 611.909", fillcolor="#f1bd98"] ;
566 -> 652 ;
653 [label="NG <= 0.496\nsquared_error = 7031.191\nsamples = 57\nvalue = 561.551", fillcolor="#f3c3a0"] ;
652 -> 653 ;
654 [label="sin_year <= 0.69\nsquared_error = 3335.541\nsamples = 33\nvalue = 512.257", fillcolor="#f4c8a9"] ;
653 -> 654 ;
655 [label="cos_year <= -0.96\nsquared_error = 1471.056\nsamples = 22\nvalue = 537.353", fillcolor="#f3c5a4"] ;
654 -> 655 ;
656 [label="squared_error = 27.007\nsamples = 2\nvalue = 465.745", fillcolor="#f5cdb1"] ;
655 -> 656 ;
657 [label="log_BIT <= 0.151\nsquared_error = 1093.804\nsamples = 20\nvalue = 543.863", fillcolor="#f3c5a3"] ;
655 -> 657 ;
658 [label="squared_error = 0.0\nsamples = 1\nvalue = 615.789", fillcolor="#f1bd97"] ;
657 -> 658 ;
659 [label="log_BIT <= 0.151\nsquared_error = 809.075\nsamples = 19\nvalue = 539.222", fillcolor="#f3c5a4"] ;
657 -> 659 ;
660 [label="squared_error = 316.015\nsamples = 6\nvalue = 519.097", fillcolor="#f4c7a8"] ;
659 -> 660 ;
661 [label="log_OTH <= 0.02\nsquared_error = 759.161\nsamples = 13\nvalue = 548.806", fillcolor="#f3c4a3"] ;
659 -> 661 ;
662 [label="squared_error = 0.0\nsamples = 1\nvalue = 504.656", fillcolor="#f4c9aa"] ;
661 -> 662 ;
663 [label="log_BIT <= 0.153\nsquared_error = 612.296\nsamples = 12\nvalue = 553.453", fillcolor="#f3c4a2"] ;
661 -> 663 ;
664 [label="squared_error = 258.584\nsamples = 4\nvalue = 572.048", fillcolor="#f2c29f"] ;
663 -> 664 ;
665 [label="squared_error = 542.311\nsamples = 8\nvalue = 544.871", fillcolor="#f3c5a3"] ;
663 -> 665 ;
666 [label="log_WND <= 0.043\nsquared_error = 2345.742\nsamples = 11\nvalue = 447.723", fillcolor="#f5cfb4"] ;
654 -> 666 ;
667 [label="squared_error = 2816.821\nsamples = 5\nvalue = 425.99", fillcolor="#f6d1b7"] ;
666 -> 667 ;
668 [label="squared_error = 930.036\nsamples = 6\nvalue = 469.455", fillcolor="#f5cdb0"] ;
666 -> 668 ;
669 [label="NG_price <= 0.134\nsquared_error = 4489.485\nsamples = 24\nvalue = 626.413", fillcolor="#f1bc95"] ;
653 -> 669 ;
670 [label="squared_error = 0.0\nsamples = 1\nvalue = 317.916", fillcolor="#f8ddc9"] ;
669 -> 670 ;
671 [label="BIT <= 0.177\nsquared_error = 1969.124\nsamples = 23\nvalue = 634.751", fillcolor="#f1bb94"] ;
669 -> 671 ;
672 [label="squared_error = 8.985\nsamples = 2\nvalue = 533.793", fillcolor="#f3c6a5"] ;
671 -> 672 ;
673 [label="log_WND <= 0.048\nsquared_error = 1465.423\nsamples = 21\nvalue = 640.52", fillcolor="#f1ba93"] ;
671 -> 673 ;
674 [label="avg_mw_per_cap <= 0.435\nsquared_error = 1236.434\nsamples = 19\nvalue = 644.27", fillcolor="#f1ba92"] ;
673 -> 674 ;
675 [label="squared_error = 612.488\nsamples = 2\nvalue = 518.52", fillcolor="#f4c7a8"] ;
674 -> 675 ;
676 [label="log_avg_mw_per_cap <= 0.52\nsquared_error = 190.67\nsamples = 17\nvalue = 652.383", fillcolor="#f1b991"] ;
674 -> 676 ;
677 [label="log_NG <= 0.407\nsquared_error = 139.537\nsamples = 16\nvalue = 653.744", fillcolor="#f1b991"] ;
676 -> 677 ;
678 [label="squared_error = 137.591\nsamples = 6\nvalue = 645.554", fillcolor="#f1ba92"] ;
677 -> 678 ;
679 [label="log_avg_mw_per_cap <= 0.463\nsquared_error = 99.303\nsamples = 10\nvalue = 657.255", fillcolor="#f0b990"] ;
677 -> 679 ;
680 [label="squared_error = 146.996\nsamples = 5\nvalue = 664.448", fillcolor="#f0b88f"] ;
679 -> 680 ;
681 [label="squared_error = 18.508\nsamples = 5\nvalue = 652.828", fillcolor="#f1b991"] ;
679 -> 681 ;
682 [label="squared_error = -0.0\nsamples = 1\nvalue = 611.529", fillcolor="#f1bd98"] ;
676 -> 682 ;
683 [label="squared_error = 1183.71\nsamples = 2\nvalue = 578.649", fillcolor="#f2c19d"] ;
673 -> 683 ;
684 [label="squared_error = 123.098\nsamples = 7\nvalue = 928.443", fillcolor="#ea9b63"] ;
652 -> 684 ;
685 [label="avg_mw_per_cap <= 0.581\nsquared_error = 23345.855\nsamples = 650\nvalue = 330.443", fillcolor="#f8dcc7"] ;
31 -> 685 ;
686 [label="SUN <= 0.016\nsquared_error = 10600.936\nsamples = 96\nvalue = 98.073", fillcolor="#fdf4ee"] ;
685 -> 686 ;
687 [label="log_WND <= 0.106\nsquared_error = 2750.302\nsamples = 52\nvalue = 19.386", fillcolor="#fffdfc"] ;
686 -> 687 ;
688 [label="squared_error = 0.0\nsamples = 1\nvalue = 480.854", fillcolor="#f4cbae"] ;
687 -> 688 ;
689 [label="MSW <= 0.0\nsquared_error = 217.717\nsamples = 51\nvalue = 13.893", fillcolor="#fffefd"] ;
687 -> 689 ;
690 [label="sin_6mo <= -1.0\nsquared_error = 52.783\nsamples = 49\nvalue = 11.002", fillcolor="#fffefd"] ;
689 -> 690 ;
691 [label="squared_error = 0.0\nsamples = 1\nvalue = 26.666", fillcolor="#fefcfb"] ;
690 -> 691 ;
692 [label="cos_6mo <= 0.83\nsquared_error = 44.907\nsamples = 48\nvalue = 10.391", fillcolor="#fffefd"] ;
690 -> 692 ;
693 [label="avg_mw_per_cap <= 0.155\nsquared_error = 16.101\nsamples = 38\nvalue = 8.921", fillcolor="#fffefd"] ;
692 -> 693 ;
694 [label="SUB <= 0.257\nsquared_error = 15.834\nsamples = 31\nvalue = 9.583", fillcolor="#fffefd"] ;
693 -> 694 ;
695 [label="log_MSW <= 0.0\nsquared_error = 12.585\nsamples = 15\nvalue = 11.482", fillcolor="#fffefd"] ;
694 -> 695 ;
696 [label="squared_error = 1.326\nsamples = 5\nvalue = 7.851", fillcolor="#fffefe"] ;
695 -> 696 ;
697 [label="log_NUC <= 0.024\nsquared_error = 9.841\nsamples = 10\nvalue = 12.894", fillcolor="#fffefd"] ;
695 -> 697 ;
698 [label="cos_6mo <= -0.867\nsquared_error = 6.584\nsamples = 9\nvalue = 11.961", fillcolor="#fffefd"] ;
697 -> 698 ;
699 [label="squared_error = 0.694\nsamples = 3\nvalue = 10.307", fillcolor="#fffefd"] ;
698 -> 699 ;
700 [label="squared_error = 7.479\nsamples = 6\nvalue = 12.788", fillcolor="#fffefd"] ;
698 -> 700 ;
701 [label="squared_error = -0.0\nsamples = 1\nvalue = 17.56", fillcolor="#fffdfc"] ;
697 -> 701 ;
702 [label="log_SUN <= 0.002\nsquared_error = 12.158\nsamples = 16\nvalue = 7.758", fillcolor="#fffefe"] ;
694 -> 702 ;
703 [label="log_SUB <= 0.243\nsquared_error = 12.882\nsamples = 9\nvalue = 8.659", fillcolor="#fffefe"] ;
702 -> 703 ;
704 [label="squared_error = 0.044\nsamples = 2\nvalue = 11.905", fillcolor="#fffefd"] ;
703 -> 704 ;
705 [label="squared_error = 12.013\nsamples = 7\nvalue = 7.306", fillcolor="#fffefe"] ;
703 -> 705 ;
706 [label="squared_error = 6.359\nsamples = 7\nvalue = 6.055", fillcolor="#fffefe"] ;
702 -> 706 ;
707 [label="squared_error = 1.047\nsamples = 7\nvalue = 5.169", fillcolor="#fffefe"] ;
693 -> 707 ;
708 [label="sin_6mo <= -0.478\nsquared_error = 112.019\nsamples = 10\nvalue = 15.581", fillcolor="#fffdfc"] ;
692 -> 708 ;
709 [label="squared_error = 38.481\nsamples = 2\nvalue = 27.721", fillcolor="#fefcfa"] ;
708 -> 709 ;
710 [label="squared_error = 55.659\nsamples = 8\nvalue = 10.522", fillcolor="#fffefd"] ;
708 -> 710 ;
711 [label="squared_error = 6.068\nsamples = 2\nvalue = 71.713", fillcolor="#fdf7f3"] ;
689 -> 711 ;
712 [label="log_WND <= 0.041\nsquared_error = 3930.285\nsamples = 44\nvalue = 190.967", fillcolor="#fbebdf"] ;
686 -> 712 ;
713 [label="squared_error = 0.0\nsamples = 1\nvalue = 581.011", fillcolor="#f2c19d"] ;
712 -> 713 ;
714 [label="sin_6mo <= -0.538\nsquared_error = 1812.72\nsamples = 43\nvalue = 185.473", fillcolor="#fbebe0"] ;
712 -> 714 ;
715 [label="MSW <= 0.001\nsquared_error = 274.87\nsamples = 12\nvalue = 217.366", fillcolor="#fae8da"] ;
714 -> 715 ;
716 [label="log_SUN <= 0.197\nsquared_error = 150.388\nsamples = 9\nvalue = 212.691", fillcolor="#fae8db"] ;
715 -> 716 ;
717 [label="squared_error = 81.01\nsamples = 8\nvalue = 209.664", fillcolor="#fae9dc"] ;
716 -> 717 ;
718 [label="squared_error = -0.0\nsamples = 1\nvalue = 238.425", fillcolor="#fae5d7"] ;
716 -> 718 ;
719 [label="squared_error = 48.217\nsamples = 3\nvalue = 246.974", fillcolor="#fae5d5"] ;
715 -> 719 ;
720 [label="cos_6mo <= 0.812\nsquared_error = 1841.448\nsamples = 31\nvalue = 171.154", fillcolor="#fbede2"] ;
714 -> 720 ;
721 [label="log_WND <= 0.087\nsquared_error = 1482.818\nsamples = 21\nvalue = 155.186", fillcolor="#fceee5"] ;
720 -> 721 ;
722 [label="log_SUN <= 0.104\nsquared_error = 1118.229\nsamples = 19\nvalue = 163.133", fillcolor="#fbeee4"] ;
721 -> 722 ;
723 [label="squared_error = 31.973\nsamples = 4\nvalue = 206.162", fillcolor="#fae9dc"] ;
722 -> 723 ;
724 [label="SUN <= 0.216\nsquared_error = 902.585\nsamples = 15\nvalue = 154.858", fillcolor="#fceee5"] ;
722 -> 724 ;
725 [label="log_WND <= 0.086\nsquared_error = 631.605\nsamples = 12\nvalue = 145.328", fillcolor="#fcefe7"] ;
724 -> 725 ;
726 [label="sin_year <= 0.713\nsquared_error = 429.04\nsamples = 11\nvalue = 138.696", fillcolor="#fcf0e8"] ;
725 -> 726 ;
727 [label="squared_error = 60.899\nsamples = 2\nvalue = 174.651", fillcolor="#fbece2"] ;
726 -> 727 ;
728 [label="log_DFO <= 0.003\nsquared_error = 293.267\nsamples = 9\nvalue = 134.202", fillcolor="#fcf1e8"] ;
726 -> 728 ;
729 [label="squared_error = 8.859\nsamples = 4\nvalue = 149.727", fillcolor="#fcefe6"] ;
728 -> 729 ;
730 [label="squared_error = 95.636\nsamples = 5\nvalue = 118.677", fillcolor="#fcf2eb"] ;
728 -> 730 ;
731 [label="squared_error = -0.0\nsamples = 1\nvalue = 185.117", fillcolor="#fbebe0"] ;
725 -> 731 ;
732 [label="squared_error = 57.171\nsamples = 3\nvalue = 194.884", fillcolor="#fbeade"] ;
724 -> 732 ;
733 [label="squared_error = 25.875\nsamples = 2\nvalue = 93.598", fillcolor="#fdf5ef"] ;
721 -> 733 ;
734 [label="SUN <= 0.12\nsquared_error = 507.009\nsamples = 10\nvalue = 211.074", fillcolor="#fae8db"] ;
720 -> 734 ;
735 [label="squared_error = 234.722\nsamples = 3\nvalue = 236.546", fillcolor="#fae6d7"] ;
734 -> 735 ;
736 [label="squared_error = 97.562\nsamples = 7\nvalue = 196.922", fillcolor="#fbeade"] ;
734 -> 736 ;
737 [label="KER <= 0.0\nsquared_error = 13950.481\nsamples = 554\nvalue = 373.112", fillcolor="#f7d7c0"] ;
685 -> 737 ;
738 [label="log_SUB <= 0.025\nsquared_error = 9251.156\nsamples = 474\nvalue = 344.047", fillcolor="#f7dac5"] ;
737 -> 738 ;
739 [label="SUN <= 0.001\nsquared_error = 7207.778\nsamples = 251\nvalue = 294.194", fillcolor="#f8dfcd"] ;
738 -> 739 ;
740 [label="cos_6mo <= -0.89\nsquared_error = 4735.212\nsamples = 29\nvalue = 474.535", fillcolor="#f5ccaf"] ;
739 -> 740 ;
741 [label="squared_error = 0.0\nsamples = 1\nvalue = 329.52", fillcolor="#f8dcc7"] ;
740 -> 741 ;
742 [label="NG_price <= 0.324\nsquared_error = 4266.373\nsamples = 28\nvalue = 478.563", fillcolor="#f4ccae"] ;
740 -> 742 ;
743 [label="log_avg_mw_per_cap <= 0.534\nsquared_error = 4161.191\nsamples = 12\nvalue = 442.946", fillcolor="#f5d0b4"] ;
742 -> 743 ;
744 [label="squared_error = 109.808\nsamples = 2\nvalue = 565.87", fillcolor="#f2c2a0"] ;
743 -> 744 ;
745 [label="cos_6mo <= 0.469\nsquared_error = 1898.315\nsamples = 10\nvalue = 422.459", fillcolor="#f6d2b8"] ;
743 -> 745 ;
746 [label="BIT <= 0.214\nsquared_error = 951.901\nsamples = 9\nvalue = 407.592", fillcolor="#f6d3ba"] ;
745 -> 746 ;
747 [label="squared_error = 713.636\nsamples = 4\nvalue = 385.878", fillcolor="#f6d6be"] ;
746 -> 747 ;
748 [label="squared_error = 586.838\nsamples = 5\nvalue = 422.069", fillcolor="#f6d2b8"] ;
746 -> 748 ;
749 [label="squared_error = -0.0\nsamples = 1\nvalue = 496.791", fillcolor="#f4caab"] ;
745 -> 749 ;
750 [label="log_WAT <= 0.102\nsquared_error = 3012.318\nsamples = 16\nvalue = 501.229", fillcolor="#f4c9ab"] ;
742 -> 750 ;
751 [label="squared_error = 265.07\nsamples = 5\nvalue = 452.738", fillcolor="#f5ceb3"] ;
750 -> 751 ;
752 [label="avg_mw_per_cap <= 0.752\nsquared_error = 2685.028\nsamples = 11\nvalue = 523.857", fillcolor="#f3c7a7"] ;
750 -> 752 ;
753 [label="squared_error = 113.708\nsamples = 2\nvalue = 613.69", fillcolor="#f1bd98"] ;
752 -> 753 ;
754 [label="OTH <= 0.026\nsquared_error = 805.987\nsamples = 9\nvalue = 501.399", fillcolor="#f4c9ab"] ;
752 -> 754 ;
755 [label="squared_error = 548.472\nsamples = 7\nvalue = 509.675", fillcolor="#f4c8a9"] ;
754 -> 755 ;
756 [label="squared_error = 38.943\nsamples = 2\nvalue = 460.021", fillcolor="#f5ceb1"] ;
754 -> 756 ;
757 [label="log_avg_mw_per_cap <= 0.608\nsquared_error = 3599.363\nsamples = 222\nvalue = 274.797", fillcolor="#f9e2d1"] ;
739 -> 757 ;
758 [label="OTH <= 0.029\nsquared_error = 3737.187\nsamples = 129\nvalue = 256.225", fillcolor="#f9e4d4"] ;
757 -> 758 ;
759 [label="NG <= 0.601\nsquared_error = 1906.539\nsamples = 78\nvalue = 235.242", fillcolor="#fae6d7"] ;
758 -> 759 ;
760 [label="BIT <= 0.074\nsquared_error = 2007.723\nsamples = 52\nvalue = 223.058", fillcolor="#fae7d9"] ;
759 -> 760 ;
761 [label="WAT <= 0.12\nsquared_error = 751.785\nsamples = 16\nvalue = 203.158", fillcolor="#fbe9dd"] ;
760 -> 761 ;
762 [label="log_GEO <= 0.031\nsquared_error = 1124.426\nsamples = 9\nvalue = 212.39", fillcolor="#fae8db"] ;
761 -> 762 ;
763 [label="squared_error = 973.01\nsamples = 5\nvalue = 187.702", fillcolor="#fbebdf"] ;
762 -> 763 ;
764 [label="squared_error = 256.925\nsamples = 4\nvalue = 233.993", fillcolor="#fae6d8"] ;
762 -> 764 ;
765 [label="squared_error = 109.961\nsamples = 7\nvalue = 192.504", fillcolor="#fbeadf"] ;
761 -> 765 ;
766 [label="log_RC <= 0.025\nsquared_error = 2342.859\nsamples = 36\nvalue = 233.189", fillcolor="#fae6d8"] ;
760 -> 766 ;
767 [label="OTH <= 0.003\nsquared_error = 1500.243\nsamples = 32\nvalue = 223.745", fillcolor="#fae7d9"] ;
766 -> 767 ;
768 [label="log_NUC <= 0.241\nsquared_error = 1515.118\nsamples = 10\nvalue = 250.877", fillcolor="#f9e4d5"] ;
767 -> 768 ;
769 [label="squared_error = 824.84\nsamples = 7\nvalue = 237.739", fillcolor="#fae6d7"] ;
768 -> 769 ;
770 [label="squared_error = 823.885\nsamples = 3\nvalue = 303.43", fillcolor="#f8decc"] ;
768 -> 770 ;
771 [label="BIT <= 0.204\nsquared_error = 1043.171\nsamples = 22\nvalue = 212.117", fillcolor="#fae8db"] ;
767 -> 771 ;
772 [label="squared_error = 0.0\nsamples = 1\nvalue = 146.554", fillcolor="#fcefe6"] ;
771 -> 772 ;
773 [label="log_NG_price <= 0.063\nsquared_error = 830.087\nsamples = 21\nvalue = 216.091", fillcolor="#fae8db"] ;
771 -> 773 ;
774 [label="squared_error = 9.834\nsamples = 2\nvalue = 184.963", fillcolor="#fbebe0"] ;
773 -> 774 ;
775 [label="avg_mw_per_cap <= 0.777\nsquared_error = 805.529\nsamples = 19\nvalue = 219.203", fillcolor="#fae7da"] ;
773 -> 775 ;
776 [label="log_avg_mw_per_cap <= 0.517\nsquared_error = 477.593\nsamples = 10\nvalue = 205.86", fillcolor="#fae9dc"] ;
775 -> 776 ;
777 [label="squared_error = 0.0\nsamples = 1\nvalue = 146.277", fillcolor="#fcefe6"] ;
776 -> 777 ;
778 [label="log_NG <= 0.296\nsquared_error = 284.571\nsamples = 9\nvalue = 209.364", fillcolor="#fae9dc"] ;
776 -> 778 ;
779 [label="squared_error = 185.491\nsamples = 6\nvalue = 217.728", fillcolor="#fae8da"] ;
778 -> 779 ;
780 [label="squared_error = 102.866\nsamples = 3\nvalue = 194.031", fillcolor="#fbeade"] ;
778 -> 780 ;
781 [label="NUC <= 0.237\nsquared_error = 629.714\nsamples = 9\nvalue = 239.219", fillcolor="#fae5d7"] ;
775 -> 781 ;
782 [label="squared_error = 133.772\nsamples = 2\nvalue = 214.621", fillcolor="#fae8db"] ;
781 -> 782 ;
783 [label="squared_error = 526.117\nsamples = 7\nvalue = 247.418", fillcolor="#fae4d5"] ;
781 -> 783 ;
784 [label="squared_error = 958.538\nsamples = 4\nvalue = 327.627", fillcolor="#f8dcc8"] ;
766 -> 784 ;
785 [label="log_RFO <= 0.114\nsquared_error = 541.78\nsamples = 26\nvalue = 263.335", fillcolor="#f9e3d3"] ;
759 -> 785 ;
786 [label="sin_year <= 0.839\nsquared_error = 355.135\nsamples = 15\nvalue = 253.792", fillcolor="#f9e4d4"] ;
785 -> 786 ;
787 [label="log_RC <= 0.001\nsquared_error = 217.3\nsamples = 14\nvalue = 256.445", fillcolor="#f9e4d4"] ;
786 -> 787 ;
788 [label="NUC <= 0.127\nsquared_error = 308.45\nsamples = 10\nvalue = 258.817", fillcolor="#f9e3d3"] ;
787 -> 788 ;
789 [label="NG_price <= 0.276\nsquared_error = 292.781\nsamples = 9\nvalue = 262.14", fillcolor="#f9e3d3"] ;
788 -> 789 ;
790 [label="squared_error = 0.0\nsamples = 1\nvalue = 242.367", fillcolor="#fae5d6"] ;
789 -> 790 ;
791 [label="squared_error = 251.658\nsamples = 8\nvalue = 266.534", fillcolor="#f9e2d2"] ;
789 -> 791 ;
792 [label="squared_error = 0.0\nsamples = 1\nvalue = 240.544", fillcolor="#fae5d6"] ;
788 -> 792 ;
793 [label="squared_error = 45.168\nsamples = 4\nvalue = 252.589", fillcolor="#f9e4d4"] ;
787 -> 793 ;
794 [label="squared_error = -0.0\nsamples = 1\nvalue = 198.097", fillcolor="#fbeade"] ;
786 -> 794 ;
795 [label="cos_year <= 0.269\nsquared_error = 467.137\nsamples = 11\nvalue = 278.33", fillcolor="#f9e1d0"] ;
785 -> 795 ;
796 [label="squared_error = 197.765\nsamples = 3\nvalue = 308.217", fillcolor="#f8decb"] ;
795 -> 796 ;
797 [label="squared_error = 230.56\nsamples = 8\nvalue = 270.179", fillcolor="#f9e2d1"] ;
795 -> 797 ;
798 [label="OTH <= 0.037\nsquared_error = 4832.631\nsamples = 51\nvalue = 287.831", fillcolor="#f9e0ce"] ;
758 -> 798 ;
799 [label="log_NG <= 0.33\nsquared_error = 2568.072\nsamples = 33\nvalue = 323.308", fillcolor="#f8dcc9"] ;
798 -> 799 ;
800 [label="log_NUC <= 0.21\nsquared_error = 1800.532\nsamples = 13\nvalue = 300.726", fillcolor="#f8dfcc"] ;
799 -> 800 ;
801 [label="squared_error = 725.45\nsamples = 5\nvalue = 264.94", fillcolor="#f9e3d2"] ;
800 -> 801 ;
802 [label="squared_error = 973.634\nsamples = 8\nvalue = 326.753", fillcolor="#f8dcc8"] ;
800 -> 802 ;
803 [label="NUC <= 0.14\nsquared_error = 2541.232\nsamples = 20\nvalue = 336.717", fillcolor="#f8dbc6"] ;
799 -> 803 ;
804 [label="sin_6mo <= 0.459\nsquared_error = 2179.311\nsamples = 15\nvalue = 325.376", fillcolor="#f8dcc8"] ;
803 -> 804 ;
805 [label="log_NG_price <= 0.537\nsquared_error = 1414.13\nsamples = 10\nvalue = 341.56", fillcolor="#f7dac5"] ;
804 -> 805 ;
806 [label="log_NUC <= 0.125\nsquared_error = 647.028\nsamples = 9\nvalue = 334.222", fillcolor="#f8dbc7"] ;
805 -> 806 ;
807 [label="squared_error = 255.474\nsamples = 5\nvalue = 311.313", fillcolor="#f8decb"] ;
806 -> 807 ;
808 [label="squared_error = 128.561\nsamples = 4\nvalue = 354.268", fillcolor="#f7d9c3"] ;
806 -> 808 ;
809 [label="squared_error = -0.0\nsamples = 1\nvalue = 451.619", fillcolor="#f5cfb3"] ;
805 -> 809 ;
810 [label="squared_error = 2314.131\nsamples = 5\nvalue = 299.484", fillcolor="#f8dfcd"] ;
804 -> 810 ;
811 [label="squared_error = 1137.487\nsamples = 5\nvalue = 385.857", fillcolor="#f6d6be"] ;
803 -> 811 ;
812 [label="avg_mw_per_cap <= 0.696\nsquared_error = 2489.062\nsamples = 18\nvalue = 223.211", fillcolor="#fae7d9"] ;
798 -> 812 ;
813 [label="squared_error = 1509.2\nsamples = 5\nvalue = 183.548", fillcolor="#fbebe0"] ;
812 -> 813 ;
814 [label="NUC <= 0.232\nsquared_error = 1855.061\nsamples = 13\nvalue = 241.998", fillcolor="#fae5d6"] ;
812 -> 814 ;
815 [label="squared_error = 924.416\nsamples = 8\nvalue = 226.596", fillcolor="#fae7d9"] ;
814 -> 815 ;
816 [label="squared_error = 2346.631\nsamples = 5\nvalue = 268.402", fillcolor="#f9e2d2"] ;
814 -> 816 ;
817 [label="RC <= 0.074\nsquared_error = 2310.325\nsamples = 93\nvalue = 299.983", fillcolor="#f8dfcc"] ;
757 -> 817 ;
818 [label="RC <= 0.058\nsquared_error = 2058.59\nsamples = 91\nvalue = 298.086", fillcolor="#f8dfcd"] ;
817 -> 818 ;
819 [label="NG_price <= 0.839\nsquared_error = 1398.549\nsamples = 86\nvalue = 303.555", fillcolor="#f8decc"] ;
818 -> 819 ;
820 [label="NG_price <= 0.03\nsquared_error = 1251.738\nsamples = 84\nvalue = 301.057", fillcolor="#f8dfcc"] ;
819 -> 820 ;
821 [label="squared_error = 90.384\nsamples = 4\nvalue = 266.094", fillcolor="#f9e2d2"] ;
820 -> 821 ;
822 [label="log_OTH <= 0.029\nsquared_error = 1238.694\nsamples = 80\nvalue = 303.899", fillcolor="#f8decc"] ;
820 -> 822 ;
823 [label="log_MSW <= 0.012\nsquared_error = 868.792\nsamples = 57\nvalue = 294.561", fillcolor="#f8dfcd"] ;
822 -> 823 ;
824 [label="log_WND <= 0.002\nsquared_error = 833.06\nsamples = 53\nvalue = 296.779", fillcolor="#f8dfcd"] ;
823 -> 824 ;
825 [label="DFO <= 0.005\nsquared_error = 728.2\nsamples = 46\nvalue = 291.022", fillcolor="#f9e0ce"] ;
824 -> 825 ;
826 [label="squared_error = 941.19\nsamples = 7\nvalue = 253.376", fillcolor="#f9e4d4"] ;
825 -> 826 ;
827 [label="log_avg_mw_per_cap <= 0.636\nsquared_error = 529.573\nsamples = 39\nvalue = 295.204", fillcolor="#f8dfcd"] ;
825 -> 827 ;
828 [label="cos_year <= 0.715\nsquared_error = 384.044\nsamples = 19\nvalue = 285.45", fillcolor="#f9e0cf"] ;
827 -> 828 ;
829 [label="log_NUC <= 0.244\nsquared_error = 297.898\nsamples = 17\nvalue = 288.199", fillcolor="#f9e0ce"] ;
828 -> 829 ;
830 [label="log_OTH <= 0.009\nsquared_error = 206.653\nsamples = 16\nvalue = 291.054", fillcolor="#f9e0ce"] ;
829 -> 830 ;
831 [label="BIT <= 0.255\nsquared_error = 127.154\nsamples = 12\nvalue = 294.71", fillcolor="#f8dfcd"] ;
830 -> 831 ;
832 [label="squared_error = 111.366\nsamples = 9\nvalue = 291.986", fillcolor="#f9e0ce"] ;
831 -> 832 ;
833 [label="squared_error = 14.475\nsamples = 3\nvalue = 306.97", fillcolor="#f8decb"] ;
831 -> 833 ;
834 [label="squared_error = 166.124\nsamples = 4\nvalue = 270.948", fillcolor="#f9e2d1"] ;
830 -> 834 ;
835 [label="squared_error = 0.0\nsamples = 1\nvalue = 251.076", fillcolor="#f9e4d5"] ;
829 -> 835 ;
836 [label="squared_error = 3.88\nsamples = 2\nvalue = 246.974", fillcolor="#fae5d5"] ;
828 -> 836 ;
837 [label="log_NG_price <= 0.493\nsquared_error = 496.748\nsamples = 20\nvalue = 304.072", fillcolor="#f8decc"] ;
827 -> 837 ;
838 [label="sin_6mo <= -0.498\nsquared_error = 377.162\nsamples = 19\nvalue = 302.048", fillcolor="#f8dfcc"] ;
837 -> 838 ;
839 [label="squared_error = 127.725\nsamples = 7\nvalue = 279.631", fillcolor="#f9e1d0"] ;
838 -> 839 ;
840 [label="NG_price <= 0.255\nsquared_error = 201.166\nsamples = 12\nvalue = 310.821", fillcolor="#f8decb"] ;
838 -> 840 ;
841 [label="squared_error = 0.172\nsamples = 2\nvalue = 321.483", fillcolor="#f8ddc9"] ;
840 -> 841 ;
842 [label="av_lon <= 0.818\nsquared_error = 217.603\nsamples = 10\nvalue = 306.156", fillcolor="#f8decb"] ;
840 -> 842 ;
843 [label="squared_error = 72.222\nsamples = 3\nvalue = 298.244", fillcolor="#f8dfcd"] ;
842 -> 843 ;
844 [label="squared_error = 242.298\nsamples = 7\nvalue = 309.752", fillcolor="#f8decb"] ;
842 -> 844 ;
845 [label="squared_error = -0.0\nsamples = 1\nvalue = 368.821", fillcolor="#f7d7c1"] ;
837 -> 845 ;
846 [label="squared_error = 123.526\nsamples = 7\nvalue = 330.363", fillcolor="#f8dcc7"] ;
824 -> 846 ;
847 [label="squared_error = 51.079\nsamples = 4\nvalue = 258.187", fillcolor="#f9e3d3"] ;
823 -> 847 ;
848 [label="cos_6mo <= 0.83\nsquared_error = 1412.605\nsamples = 23\nvalue = 326.466", fillcolor="#f8dcc8"] ;
822 -> 848 ;
849 [label="log_NG <= 0.308\nsquared_error = 1262.522\nsamples = 14\nvalue = 314.723", fillcolor="#f8ddca"] ;
848 -> 849 ;
850 [label="squared_error = 0.0\nsamples = 1\nvalue = 414.838", fillcolor="#f6d3b9"] ;
849 -> 850 ;
851 [label="WAT <= 0.014\nsquared_error = 862.677\nsamples = 13\nvalue = 310.37", fillcolor="#f8decb"] ;
849 -> 851 ;
852 [label="squared_error = 1178.428\nsamples = 6\nvalue = 296.724", fillcolor="#f8dfcd"] ;
851 -> 852 ;
853 [label="squared_error = 246.079\nsamples = 7\nvalue = 322.878", fillcolor="#f8dcc9"] ;
851 -> 853 ;
854 [label="log_NG_price <= 0.246\nsquared_error = 885.258\nsamples = 9\nvalue = 349.954", fillcolor="#f7d9c4"] ;
848 -> 854 ;
855 [label="squared_error = 466.093\nsamples = 6\nvalue = 334.017", fillcolor="#f8dbc7"] ;
854 -> 855 ;
856 [label="squared_error = 199.642\nsamples = 3\nvalue = 381.828", fillcolor="#f7d6bf"] ;
854 -> 856 ;
857 [label="squared_error = 722.466\nsamples = 2\nvalue = 370.002", fillcolor="#f7d7c1"] ;
819 -> 857 ;
858 [label="squared_error = 732.888\nsamples = 5\nvalue = 172.313", fillcolor="#fbede2"] ;
818 -> 858 ;
859 [label="squared_error = 1521.321\nsamples = 2\nvalue = 436.566", fillcolor="#f5d0b5"] ;
817 -> 859 ;
860 [label="SUN <= 0.002\nsquared_error = 5948.744\nsamples = 223\nvalue = 397.252", fillcolor="#f6d4bc"] ;
738 -> 860 ;
861 [label="OTH <= 0.008\nsquared_error = 2752.004\nsamples = 60\nvalue = 469.841", fillcolor="#f5cdb0"] ;
860 -> 861 ;
862 [label="log_NG_price <= 0.145\nsquared_error = 2063.394\nsamples = 30\nvalue = 429.726", fillcolor="#f5d1b7"] ;
861 -> 862 ;
863 [label="squared_error = 945.091\nsamples = 7\nvalue = 387.86", fillcolor="#f6d5be"] ;
862 -> 863 ;
864 [label="log_avg_mw_per_cap <= 0.615\nsquared_error = 1676.341\nsamples = 23\nvalue = 443.232", fillcolor="#f5cfb4"] ;
862 -> 864 ;
865 [label="log_WAT <= 0.005\nsquared_error = 1243.83\nsamples = 13\nvalue = 426.631", fillcolor="#f6d1b7"] ;
864 -> 865 ;
866 [label="squared_error = 240.555\nsamples = 3\nvalue = 472.554", fillcolor="#f5ccaf"] ;
865 -> 866 ;
867 [label="log_NG_price <= 0.455\nsquared_error = 962.382\nsamples = 10\nvalue = 418.02", fillcolor="#f6d2b9"] ;
865 -> 867 ;
868 [label="log_DFO <= 0.002\nsquared_error = 705.749\nsamples = 9\nvalue = 411.001", fillcolor="#f6d3ba"] ;
867 -> 868 ;
869 [label="squared_error = 694.387\nsamples = 7\nvalue = 416.862", fillcolor="#f6d2b9"] ;
868 -> 869 ;
870 [label="squared_error = 159.665\nsamples = 2\nvalue = 389.512", fillcolor="#f6d5bd"] ;
868 -> 870 ;
871 [label="squared_error = 0.0\nsamples = 1\nvalue = 467.152", fillcolor="#f5cdb0"] ;
867 -> 871 ;
872 [label="WND <= 0.001\nsquared_error = 1233.926\nsamples = 10\nvalue = 469.516", fillcolor="#f5cdb0"] ;
864 -> 872 ;
873 [label="squared_error = 87.46\nsamples = 4\nvalue = 422.238", fillcolor="#f6d2b8"] ;
872 -> 873 ;
874 [label="squared_error = 130.738\nsamples = 6\nvalue = 493.155", fillcolor="#f4caac"] ;
872 -> 874 ;
875 [label="avg_mw_per_cap <= 0.745\nsquared_error = 855.154\nsamples = 30\nvalue = 503.406", fillcolor="#f4c9aa"] ;
861 -> 875 ;
876 [label="NUC <= 0.067\nsquared_error = 266.222\nsamples = 10\nvalue = 482.876", fillcolor="#f4cbae"] ;
875 -> 876 ;
877 [label="squared_error = 33.328\nsamples = 4\nvalue = 497.498", fillcolor="#f4caab"] ;
876 -> 877 ;
878 [label="squared_error = 71.518\nsamples = 6\nvalue = 468.255", fillcolor="#f5cdb0"] ;
876 -> 878 ;
879 [label="av_lat <= 0.368\nsquared_error = 810.311\nsamples = 20\nvalue = 515.326", fillcolor="#f4c8a8"] ;
875 -> 879 ;
880 [label="DFO <= 0.018\nsquared_error = 524.849\nsamples = 19\nvalue = 520.019", fillcolor="#f3c7a7"] ;
879 -> 880 ;
